<?xml version="1.0"?>
<opencv_storage>
<cascade>
  <stageType>BOOST</stageType>
  <featureType>HAAR</featureType>
  <height>30</height>
  <width>30</width>
  <stageParams>
    <boostType>GAB</boostType>
    <minHitRate>9.9000000953674316e-01</minHitRate>
    <maxFalseAlarm>1.0000000149011612e-01</maxFalseAlarm>
    <weightTrimRate>9.4999999999999996e-01</weightTrimRate>
    <maxDepth>1</maxDepth>
    <maxWeakCount>100</maxWeakCount></stageParams>
  <featureParams>
    <maxCatCount>0</maxCatCount>
    <featSize>1</featSize>
    <mode>BASIC</mode></featureParams>
  <stageNum>8</stageNum>
  <stages>
    <!-- stage 0 -->
    <_>
      <maxWeakCount>8</maxWeakCount>
      <stageThreshold>-1.1296064853668213e+00</stageThreshold>
      <weakClassifiers>
        <_>
          <internalNodes>
            0 -1 18 4.7018374316394329e-03</internalNodes>
          <leafValues>
            -8.5723471641540527e-01 5.4285717010498047e-01</leafValues></_>
        <_>
          <internalNodes>
            0 -1 55 -1.0359074920415878e-02</internalNodes>
          <leafValues>
            6.1808544397354126e-01 -6.6351598501205444e-01</leafValues></_>
        <_>
          <internalNodes>
            0 -1 93 6.9149332121014595e-03</internalNodes>
          <leafValues>
            -5.1848417520523071e-01 7.0107352733612061e-01</leafValues></_>
        <_>
          <internalNodes>
            0 -1 32 1.5390715561807156e-03</internalNodes>
          <leafValues>
            -5.1502013206481934e-01 5.2896529436111450e-01</leafValues></_>
        <_>
          <internalNodes>
            0 -1 63 -7.5083998963236809e-03</internalNodes>
          <leafValues>
            7.3038035631179810e-01 -3.5466045141220093e-01</leafValues></_>
        <_>
          <internalNodes>
            0 -1 13 -7.8494418412446976e-03</internalNodes>
          <leafValues>
            -7.0152109861373901e-01 4.4622248411178589e-01</leafValues></_>
        <_>
          <internalNodes>
            0 -1 95 -1.5890732174739242e-03</internalNodes>
          <leafValues>
            6.6069436073303223e-01 -3.8918763399124146e-01</leafValues></_>
        <_>
          <internalNodes>
            0 -1 4 -1.0719580575823784e-02</internalNodes>
          <leafValues>
            7.3185575008392334e-01 -3.7159332633018494e-01</leafValues></_></weakClassifiers></_>
    <!-- stage 1 -->
    <_>
      <maxWeakCount>9</maxWeakCount>
      <stageThreshold>-9.3526542186737061e-01</stageThreshold>
      <weakClassifiers>
        <_>
          <internalNodes>
            0 -1 90 -2.5121597573161125e-02</internalNodes>
          <leafValues>
            -9.4720494747161865e-01 3.9062500000000000e-02</leafValues></_>
        <_>
          <internalNodes>
            0 -1 44 -4.9300156533718109e-02</internalNodes>
          <leafValues>
            -1. 2.1782241761684418e-02</leafValues></_>
        <_>
          <internalNodes>
            0 -1 102 -9.9475858733057976e-03</internalNodes>
          <leafValues>
            8.7275326251983643e-01 -4.3960735201835632e-01</leafValues></_>
        <_>
          <internalNodes>
            0 -1 14 2.5830923113971949e-03</internalNodes>
          <leafValues>
            -5.3668534755706787e-01 4.9218595027923584e-01</leafValues></_>
        <_>
          <internalNodes>
            0 -1 99 -8.6144497618079185e-03</internalNodes>
          <leafValues>
            8.4325975179672241e-01 -2.6518285274505615e-01</leafValues></_>
        <_>
          <internalNodes>
            0 -1 40 -5.3712222725152969e-02</internalNodes>
          <leafValues>
            -1. 2.7587711811065674e-01</leafValues></_>
        <_>
          <internalNodes>
            0 -1 28 -1.4305938966572285e-02</internalNodes>
          <leafValues>
            6.3079881668090820e-01 -4.0275436639785767e-01</leafValues></_>
        <_>
          <internalNodes>
            0 -1 83 -5.3972692694514990e-04</internalNodes>
          <leafValues>
            8.5474359989166260e-01 -2.9512310028076172e-01</leafValues></_>
        <_>
          <internalNodes>
            0 -1 84 3.1545106321573257e-04</internalNodes>
          <leafValues>
            -3.6150553822517395e-01 7.5121688842773438e-01</leafValues></_></weakClassifiers></_>
    <!-- stage 2 -->
    <_>
      <maxWeakCount>10</maxWeakCount>
      <stageThreshold>-1.0866543054580688e+00</stageThreshold>
      <weakClassifiers>
        <_>
          <internalNodes>
            0 -1 1 -1.2989896535873413e-01</internalNodes>
          <leafValues>
            -8.6413043737411499e-01 2.1951219439506531e-01</leafValues></_>
        <_>
          <internalNodes>
            0 -1 6 -9.8342727869749069e-03</internalNodes>
          <leafValues>
            7.6837676763534546e-01 -4.9741619825363159e-01</leafValues></_>
        <_>
          <internalNodes>
            0 -1 103 -9.2028444632887840e-03</internalNodes>
          <leafValues>
            6.9790005683898926e-01 -3.1898826360702515e-01</leafValues></_>
        <_>
          <internalNodes>
            0 -1 64 -9.1523968148976564e-04</internalNodes>
          <leafValues>
            3.2582890987396240e-01 -6.7230355739593506e-01</leafValues></_>
        <_>
          <internalNodes>
            0 -1 41 -5.4859615862369537e-02</internalNodes>
          <leafValues>
            -6.9931125640869141e-01 3.3301976323127747e-01</leafValues></_>
        <_>
          <internalNodes>
            0 -1 67 -2.4749399162828922e-03</internalNodes>
          <leafValues>
            6.2689203023910522e-01 -3.2204502820968628e-01</leafValues></_>
        <_>
          <internalNodes>
            0 -1 58 1.9688144326210022e-02</internalNodes>
          <leafValues>
            -4.3304175138473511e-01 4.3678992986679077e-01</leafValues></_>
        <_>
          <internalNodes>
            0 -1 65 -6.5598376095294952e-03</internalNodes>
          <leafValues>
            7.7660286426544189e-01 -2.3239670693874359e-01</leafValues></_>
        <_>
          <internalNodes>
            0 -1 27 7.9234531149268150e-03</internalNodes>
          <leafValues>
            -2.4488785862922668e-01 7.1034169197082520e-01</leafValues></_>
        <_>
          <internalNodes>
            0 -1 42 -1.0723562538623810e-01</internalNodes>
          <leafValues>
            -9.4354742765426636e-01 2.1846617758274078e-01</leafValues></_></weakClassifiers></_>
    <!-- stage 3 -->
    <_>
      <maxWeakCount>12</maxWeakCount>
      <stageThreshold>-1.1256338357925415e+00</stageThreshold>
      <weakClassifiers>
        <_>
          <internalNodes>
            0 -1 20 -1.6425503790378571e-01</internalNodes>
          <leafValues>
            5.1690822839736938e-01 -8.2046455144882202e-01</leafValues></_>
        <_>
          <internalNodes>
            0 -1 34 1.4341834187507629e-01</internalNodes>
          <leafValues>
            -4.9832546710968018e-01 6.0451698303222656e-01</leafValues></_>
        <_>
          <internalNodes>
            0 -1 106 -2.0205495820846409e-04</internalNodes>
          <leafValues>
            -8.6773902177810669e-01 2.0938068628311157e-01</leafValues></_>
        <_>
          <internalNodes>
            0 -1 106 1.9635986245702952e-04</internalNodes>
          <leafValues>
            2.3704002797603607e-01 -7.3011291027069092e-01</leafValues></_>
        <_>
          <internalNodes>
            0 -1 30 1.8358677625656128e-02</internalNodes>
          <leafValues>
            -3.4579515457153320e-01 6.1631727218627930e-01</leafValues></_>
        <_>
          <internalNodes>
            0 -1 24 -2.8152100276201963e-04</internalNodes>
          <leafValues>
            -7.5076359510421753e-01 2.7125647664070129e-01</leafValues></_>
        <_>
          <internalNodes>
            0 -1 23 4.6644802205264568e-04</internalNodes>
          <leafValues>
            2.4110695719718933e-01 -8.8333868980407715e-01</leafValues></_>
        <_>
          <internalNodes>
            0 -1 21 -2.8790224343538284e-02</internalNodes>
          <leafValues>
            5.6024873256683350e-01 -3.5125336050987244e-01</leafValues></_>
        <_>
          <internalNodes>
            0 -1 0 -2.1039547398686409e-02</internalNodes>
          <leafValues>
            8.1871420145034790e-01 -2.1441030502319336e-01</leafValues></_>
        <_>
          <internalNodes>
            0 -1 10 -1.2282500392757356e-04</internalNodes>
          <leafValues>
            -7.3285794258117676e-01 2.7371823787689209e-01</leafValues></_>
        <_>
          <internalNodes>
            0 -1 10 1.0930048301815987e-04</internalNodes>
          <leafValues>
            3.1503257155418396e-01 -6.2524515390396118e-01</leafValues></_>
        <_>
          <internalNodes>
            0 -1 82 -4.3892101384699345e-03</internalNodes>
          <leafValues>
            5.7910001277923584e-01 -3.2490825653076172e-01</leafValues></_></weakClassifiers></_>
    <!-- stage 4 -->
    <_>
      <maxWeakCount>13</maxWeakCount>
      <stageThreshold>-8.5146534442901611e-01</stageThreshold>
      <weakClassifiers>
        <_>
          <internalNodes>
            0 -1 101 -1.6805022954940796e-02</internalNodes>
          <leafValues>
            4.4966444373130798e-01 -7.6741367578506470e-01</leafValues></_>
        <_>
          <internalNodes>
            0 -1 11 2.4519335478544235e-02</internalNodes>
          <leafValues>
            -5.1123660802841187e-01 4.3623852729797363e-01</leafValues></_>
        <_>
          <internalNodes>
            0 -1 47 -7.3469867929816246e-03</internalNodes>
          <leafValues>
            -8.7951123714447021e-01 1.8750569224357605e-01</leafValues></_>
        <_>
          <internalNodes>
            0 -1 49 2.2915091365575790e-02</internalNodes>
          <leafValues>
            1.4725193381309509e-01 -9.0366518497467041e-01</leafValues></_>
        <_>
          <internalNodes>
            0 -1 35 -1.3379074633121490e-02</internalNodes>
          <leafValues>
            -9.3173038959503174e-01 1.4545063674449921e-01</leafValues></_>
        <_>
          <internalNodes>
            0 -1 68 -2.4374114349484444e-02</internalNodes>
          <leafValues>
            -8.3660197257995605e-01 1.6217561066150665e-01</leafValues></_>
        <_>
          <internalNodes>
            0 -1 60 -2.6567205786705017e-02</internalNodes>
          <leafValues>
            3.6639317870140076e-01 -4.0880200266838074e-01</leafValues></_>
        <_>
          <internalNodes>
            0 -1 92 -2.1986998617649078e-03</internalNodes>
          <leafValues>
            -8.8730078935623169e-01 1.6249874234199524e-01</leafValues></_>
        <_>
          <internalNodes>
            0 -1 108 -1.9239253015257418e-04</internalNodes>
          <leafValues>
            -7.3966205120086670e-01 1.6761206090450287e-01</leafValues></_>
        <_>
          <internalNodes>
            0 -1 46 -1.4342078939080238e-03</internalNodes>
          <leafValues>
            -8.1657510995864868e-01 1.4351136982440948e-01</leafValues></_>
        <_>
          <internalNodes>
            0 -1 45 1.5811018645763397e-02</internalNodes>
          <leafValues>
            1.2548561394214630e-01 -8.3756041526794434e-01</leafValues></_>
        <_>
          <internalNodes>
            0 -1 54 3.5531600005924702e-03</internalNodes>
          <leafValues>
            -3.1961533427238464e-01 4.7981205582618713e-01</leafValues></_>
        <_>
          <internalNodes>
            0 -1 96 1.1618451680988073e-03</internalNodes>
          <leafValues>
            1.8871499598026276e-01 -8.3452820777893066e-01</leafValues></_></weakClassifiers></_>
    <!-- stage 5 -->
    <_>
      <maxWeakCount>16</maxWeakCount>
      <stageThreshold>-1.0796505212783813e+00</stageThreshold>
      <weakClassifiers>
        <_>
          <internalNodes>
            0 -1 53 -5.7176291011273861e-03</internalNodes>
          <leafValues>
            4.4715446233749390e-01 -7.4836015701293945e-01</leafValues></_>
        <_>
          <internalNodes>
            0 -1 50 -1.7791040241718292e-02</internalNodes>
          <leafValues>
            4.5994412899017334e-01 -4.5696574449539185e-01</leafValues></_>
        <_>
          <internalNodes>
            0 -1 16 1.2741407752037048e-01</internalNodes>
          <leafValues>
            1.7641101777553558e-01 -8.9390885829925537e-01</leafValues></_>
        <_>
          <internalNodes>
            0 -1 81 -2.2827333305031061e-03</internalNodes>
          <leafValues>
            6.4237016439437866e-01 -2.8812131285667419e-01</leafValues></_>
        <_>
          <internalNodes>
            0 -1 86 -3.9746188558638096e-03</internalNodes>
          <leafValues>
            6.2401419878005981e-01 -2.3054189980030060e-01</leafValues></_>
        <_>
          <internalNodes>
            0 -1 69 -1.4356272295117378e-02</internalNodes>
          <leafValues>
            -9.6319061517715454e-01 2.0860996842384338e-01</leafValues></_>
        <_>
          <internalNodes>
            0 -1 17 1.0306889191269875e-02</internalNodes>
          <leafValues>
            -2.8410628437995911e-01 7.6580005884170532e-01</leafValues></_>
        <_>
          <internalNodes>
            0 -1 56 -3.2684360630810261e-03</internalNodes>
          <leafValues>
            -7.5708448886871338e-01 2.5479719042778015e-01</leafValues></_>
        <_>
          <internalNodes>
            0 -1 98 -9.5613282173871994e-03</internalNodes>
          <leafValues>
            5.8880466222763062e-01 -3.2470646500587463e-01</leafValues></_>
        <_>
          <internalNodes>
            0 -1 52 4.9960571341216564e-03</internalNodes>
          <leafValues>
            -2.4505427479743958e-01 6.7150813341140747e-01</leafValues></_>
        <_>
          <internalNodes>
            0 -1 78 1.3074193149805069e-02</internalNodes>
          <leafValues>
            1.8939377367496490e-01 -8.8465237617492676e-01</leafValues></_>
        <_>
          <internalNodes>
            0 -1 29 -1.3145434670150280e-02</internalNodes>
          <leafValues>
            6.9205826520919800e-01 -2.4272517859935760e-01</leafValues></_>
        <_>
          <internalNodes>
            0 -1 7 1.3243014924228191e-02</internalNodes>
          <leafValues>
            2.1426773071289063e-01 -7.9297596216201782e-01</leafValues></_>
        <_>
          <internalNodes>
            0 -1 38 3.4745095763355494e-04</internalNodes>
          <leafValues>
            -2.9054978489875793e-01 4.5496600866317749e-01</leafValues></_>
        <_>
          <internalNodes>
            0 -1 57 8.9409705251455307e-03</internalNodes>
          <leafValues>
            -2.5120145082473755e-01 5.7234245538711548e-01</leafValues></_>
        <_>
          <internalNodes>
            0 -1 100 4.0828450582921505e-03</internalNodes>
          <leafValues>
            -2.0373328030109406e-01 6.5314334630966187e-01</leafValues></_></weakClassifiers></_>
    <!-- stage 6 -->
    <_>
      <maxWeakCount>22</maxWeakCount>
      <stageThreshold>-1.3075168132781982e+00</stageThreshold>
      <weakClassifiers>
        <_>
          <internalNodes>
            0 -1 19 1.2272490188479424e-02</internalNodes>
          <leafValues>
            -7.6448595523834229e-01 1.3846154510974884e-01</leafValues></_>
        <_>
          <internalNodes>
            0 -1 3 3.1565159559249878e-02</internalNodes>
          <leafValues>
            -6.2912797927856445e-01 8.8960707187652588e-02</leafValues></_>
        <_>
          <internalNodes>
            0 -1 97 8.4442663937807083e-03</internalNodes>
          <leafValues>
            -1.9571655988693237e-01 6.5955519676208496e-01</leafValues></_>
        <_>
          <internalNodes>
            0 -1 88 -1.9734160974621773e-02</internalNodes>
          <leafValues>
            5.4354459047317505e-01 -1.9451694190502167e-01</leafValues></_>
        <_>
          <internalNodes>
            0 -1 59 -9.0912673622369766e-03</internalNodes>
          <leafValues>
            2.5752785801887512e-01 -4.3027758598327637e-01</leafValues></_>
        <_>
          <internalNodes>
            0 -1 26 -8.0230116844177246e-02</internalNodes>
          <leafValues>
            1.6882263123989105e-01 -9.0025067329406738e-01</leafValues></_>
        <_>
          <internalNodes>
            0 -1 51 3.9946936070919037e-02</internalNodes>
          <leafValues>
            -2.1131967008113861e-01 6.9438099861145020e-01</leafValues></_>
        <_>
          <internalNodes>
            0 -1 72 1.2190109118819237e-03</internalNodes>
          <leafValues>
            1.7531830072402954e-01 -8.7621563673019409e-01</leafValues></_>
        <_>
          <internalNodes>
            0 -1 48 3.6681457422673702e-03</internalNodes>
          <leafValues>
            -2.7196758985519409e-01 4.6102395653724670e-01</leafValues></_>
        <_>
          <internalNodes>
            0 -1 33 5.7226382195949554e-02</internalNodes>
          <leafValues>
            1.5068300068378448e-01 -9.1504132747650146e-01</leafValues></_>
        <_>
          <internalNodes>
            0 -1 43 4.4108461588621140e-03</internalNodes>
          <leafValues>
            -2.3044350743293762e-01 5.1546621322631836e-01</leafValues></_>
        <_>
          <internalNodes>
            0 -1 76 1.0618654778227210e-03</internalNodes>
          <leafValues>
            1.6693785786628723e-01 -7.8529113531112671e-01</leafValues></_>
        <_>
          <internalNodes>
            0 -1 85 -3.6331177689135075e-03</internalNodes>
          <leafValues>
            4.2445641756057739e-01 -2.5895032286643982e-01</leafValues></_>
        <_>
          <internalNodes>
            0 -1 5 -5.6582759134471416e-04</internalNodes>
          <leafValues>
            -8.0733996629714966e-01 1.3057823479175568e-01</leafValues></_>
        <_>
          <internalNodes>
            0 -1 75 1.8850603373721242e-04</internalNodes>
          <leafValues>
            -3.2967293262481689e-01 3.3521550893783569e-01</leafValues></_>
        <_>
          <internalNodes>
            0 -1 61 -3.8492721505463123e-03</internalNodes>
          <leafValues>
            3.9916485548019409e-01 -2.7496904134750366e-01</leafValues></_>
        <_>
          <internalNodes>
            0 -1 39 -5.1885298453271389e-03</internalNodes>
          <leafValues>
            -8.1762981414794922e-01 1.4069643616676331e-01</leafValues></_>
        <_>
          <internalNodes>
            0 -1 9 1.1200639419257641e-03</internalNodes>
          <leafValues>
            7.8414194285869598e-02 -9.3416249752044678e-01</leafValues></_>
        <_>
          <internalNodes>
            0 -1 94 -1.1991425417363644e-03</internalNodes>
          <leafValues>
            4.7909441590309143e-01 -2.3012048006057739e-01</leafValues></_>
        <_>
          <internalNodes>
            0 -1 77 -1.1585713364183903e-03</internalNodes>
          <leafValues>
            -8.7867915630340576e-01 1.3496802747249603e-01</leafValues></_>
        <_>
          <internalNodes>
            0 -1 31 -1.0095424950122833e-03</internalNodes>
          <leafValues>
            3.3395132422447205e-01 -3.1997972726821899e-01</leafValues></_>
        <_>
          <internalNodes>
            0 -1 91 5.6692464277148247e-03</internalNodes>
          <leafValues>
            -2.3737128078937531e-01 4.4477638602256775e-01</leafValues></_></weakClassifiers></_>
    <!-- stage 7 -->
    <_>
      <maxWeakCount>22</maxWeakCount>
      <stageThreshold>-1.1065500974655151e+00</stageThreshold>
      <weakClassifiers>
        <_>
          <internalNodes>
            0 -1 12 1.1813780292868614e-02</internalNodes>
          <leafValues>
            -7.3093092441558838e-01 1.2592592835426331e-01</leafValues></_>
        <_>
          <internalNodes>
            0 -1 2 2.3996796458959579e-02</internalNodes>
          <leafValues>
            -5.5902242660522461e-01 6.8381294608116150e-02</leafValues></_>
        <_>
          <internalNodes>
            0 -1 62 -2.2552832961082458e-02</internalNodes>
          <leafValues>
            -8.2711422443389893e-01 1.0424218326807022e-01</leafValues></_>
        <_>
          <internalNodes>
            0 -1 74 -1.8989557400345802e-02</internalNodes>
          <leafValues>
            -9.3148171901702881e-01 1.0317165404558182e-01</leafValues></_>
        <_>
          <internalNodes>
            0 -1 25 1.7456101253628731e-02</internalNodes>
          <leafValues>
            1.3997422158718109e-01 -6.8801879882812500e-01</leafValues></_>
        <_>
          <internalNodes>
            0 -1 36 3.0931071378290653e-03</internalNodes>
          <leafValues>
            -2.5453382730484009e-01 5.0742888450622559e-01</leafValues></_>
        <_>
          <internalNodes>
            0 -1 9 -7.6744204852730036e-04</internalNodes>
          <leafValues>
            -7.4760568141937256e-01 1.6812175512313843e-01</leafValues></_>
        <_>
          <internalNodes>
            0 -1 37 3.5363431088626385e-03</internalNodes>
          <leafValues>
            -2.6091262698173523e-01 4.2905434966087341e-01</leafValues></_>
        <_>
          <internalNodes>
            0 -1 107 -2.0067923469468951e-04</internalNodes>
          <leafValues>
            -7.1763002872467041e-01 1.6472603380680084e-01</leafValues></_>
        <_>
          <internalNodes>
            0 -1 15 -1.0511708445847034e-02</internalNodes>
          <leafValues>
            3.4817820787429810e-01 -3.2913148403167725e-01</leafValues></_>
        <_>
          <internalNodes>
            0 -1 104 4.4859520858153701e-04</internalNodes>
          <leafValues>
            1.4017911255359650e-01 -7.9013121128082275e-01</leafValues></_>
        <_>
          <internalNodes>
            0 -1 89 -4.1577992960810661e-03</internalNodes>
          <leafValues>
            5.8342558145523071e-01 -1.9122204184532166e-01</leafValues></_>
        <_>
          <internalNodes>
            0 -1 66 -2.6041953824460506e-03</internalNodes>
          <leafValues>
            -7.3441690206527710e-01 1.4872655272483826e-01</leafValues></_>
        <_>
          <internalNodes>
            0 -1 87 -3.9953930536285043e-04</internalNodes>
          <leafValues>
            3.8901105523109436e-01 -2.6439771056175232e-01</leafValues></_>
        <_>
          <internalNodes>
            0 -1 79 -1.4604408293962479e-02</internalNodes>
          <leafValues>
            -9.1049867868423462e-01 1.0938306152820587e-01</leafValues></_>
        <_>
          <internalNodes>
            0 -1 22 5.0889840349555016e-04</internalNodes>
          <leafValues>
            7.2033129632472992e-02 -9.0490520000457764e-01</leafValues></_>
        <_>
          <internalNodes>
            0 -1 70 1.1204226175323129e-03</internalNodes>
          <leafValues>
            -2.3715470731258392e-01 4.3974721431732178e-01</leafValues></_>
        <_>
          <internalNodes>
            0 -1 71 -2.7607833035290241e-03</internalNodes>
          <leafValues>
            6.0141932964324951e-01 -1.7358614504337311e-01</leafValues></_>
        <_>
          <internalNodes>
            0 -1 8 5.1730067934840918e-04</internalNodes>
          <leafValues>
            -1.9720886647701263e-01 4.9272510409355164e-01</leafValues></_>
        <_>
          <internalNodes>
            0 -1 105 4.5160425361245871e-04</internalNodes>
          <leafValues>
            1.2271615117788315e-01 -9.1806918382644653e-01</leafValues></_>
        <_>
          <internalNodes>
            0 -1 80 -2.9849563725292683e-04</internalNodes>
          <leafValues>
            3.3544623851776123e-01 -2.8286665678024292e-01</leafValues></_>
        <_>
          <internalNodes>
            0 -1 73 -5.7865269482135773e-03</internalNodes>
          <leafValues>
            6.7988914251327515e-01 -1.4764907956123352e-01</leafValues></_></weakClassifiers></_></stages>
  <features>
    <_>
      <rects>
        <_>
          0 1 2 29 -1.</_>
        <_>
          1 1 1 29 2.</_></rects>
      <tilted>0</tilted></_>
    <_>
      <rects>
        <_>
          0 3 9 16 -1.</_>
        <_>
          3 3 3 16 2.</_></rects>
      <tilted>0</tilted></_>
    <_>
      <rects>
        <_>
          0 3 10 27 -1.</_>
        <_>
          5 3 5 27 2.</_></rects>
      <tilted>0</tilted></_>
    <_>
      <rects>
        <_>
          0 5 16 23 -1.</_>
        <_>
          8 5 8 23 2.</_></rects>
      <tilted>0</tilted></_>
    <_>
      <rects>
        <_>
          0 7 4 21 -1.</_>
        <_>
          2 7 2 21 2.</_></rects>
      <tilted>0</tilted></_>
    <_>
      <rects>
        <_>
          0 9 2 2 -1.</_>
        <_>
          0 10 2 1 2.</_></rects>
      <tilted>0</tilted></_>
    <_>
      <rects>
        <_>
          0 10 2 12 -1.</_>
        <_>
          1 10 1 12 2.</_></rects>
      <tilted>0</tilted></_>
    <_>
      <rects>
        <_>
          0 12 19 4 -1.</_>
        <_>
          0 14 19 2 2.</_></rects>
      <tilted>0</tilted></_>
    <_>
      <rects>
        <_>
          0 17 2 2 -1.</_>
        <_>
          1 17 1 2 2.</_></rects>
      <tilted>0</tilted></_>
    <_>
      <rects>
        <_>
          0 17 1 4 -1.</_>
        <_>
          0 19 1 2 2.</_></rects>
      <tilted>0</tilted></_>
    <_>
      <rects>
        <_>
          0 21 1 2 -1.</_>
        <_>
          0 22 1 1 2.</_></rects>
      <tilted>0</tilted></_>
    <_>
      <rects>
        <_>
          1 3 4 22 -1.</_>
        <_>
          3 3 2 22 2.</_></rects>
      <tilted>0</tilted></_>
    <_>
      <rects>
        <_>
          1 28 16 2 -1.</_>
        <_>
          1 29 16 1 2.</_></rects>
      <tilted>0</tilted></_>
    <_>
      <rects>
        <_>
          2 10 2 3 -1.</_>
        <_>
          2 11 2 1 2.</_></rects>
      <tilted>0</tilted></_>
    <_>
      <rects>
        <_>
          2 13 4 3 -1.</_>
        <_>
          4 13 2 3 2.</_></rects>
      <tilted>0</tilted></_>
    <_>
      <rects>
        <_>
          2 20 16 6 -1.</_>
        <_>
          2 20 8 3 2.</_>
        <_>
          10 23 8 3 2.</_></rects>
      <tilted>0</tilted></_>
    <_>
      <rects>
        <_>
          3 0 24 24 -1.</_>
        <_>
          15 0 12 24 2.</_></rects>
      <tilted>0</tilted></_>
    <_>
      <rects>
        <_>
          3 2 5 4 -1.</_>
        <_>
          3 4 5 2 2.</_></rects>
      <tilted>0</tilted></_>
    <_>
      <rects>
        <_>
          3 8 2 10 -1.</_>
        <_>
          4 8 1 10 2.</_></rects>
      <tilted>0</tilted></_>
    <_>
      <rects>
        <_>
          3 14 2 10 -1.</_>
        <_>
          4 14 1 10 2.</_></rects>
      <tilted>0</tilted></_>
    <_>
      <rects>
        <_>
          3 16 26 14 -1.</_>
        <_>
          3 23 26 7 2.</_></rects>
      <tilted>0</tilted></_>
    <_>
      <rects>
        <_>
          3 24 25 6 -1.</_>
        <_>
          3 27 25 3 2.</_></rects>
      <tilted>0</tilted></_>
    <_>
      <rects>
        <_>
          3 29 2 1 -1.</_>
        <_>
          4 29 1 1 2.</_></rects>
      <tilted>0</tilted></_>
    <_>
      <rects>
        <_>
          4 0 2 2 -1.</_>
        <_>
          5 0 1 2 2.</_></rects>
      <tilted>0</tilted></_>
    <_>
      <rects>
        <_>
          4 1 2 2 -1.</_>
        <_>
          5 1 1 2 2.</_></rects>
      <tilted>0</tilted></_>
    <_>
      <rects>
        <_>
          4 4 6 24 -1.</_>
        <_>
          7 4 3 24 2.</_></rects>
      <tilted>0</tilted></_>
    <_>
      <rects>
        <_>
          4 6 24 6 -1.</_>
        <_>
          12 6 8 6 2.</_></rects>
      <tilted>0</tilted></_>
    <_>
      <rects>
        <_>
          4 7 2 15 -1.</_>
        <_>
          5 7 1 15 2.</_></rects>
      <tilted>0</tilted></_>
    <_>
      <rects>
        <_>
          4 21 8 6 -1.</_>
        <_>
          4 24 8 3 2.</_></rects>
      <tilted>0</tilted></_>
    <_>
      <rects>
        <_>
          4 25 7 4 -1.</_>
        <_>
          4 27 7 2 2.</_></rects>
      <tilted>0</tilted></_>
    <_>
      <rects>
        <_>
          4 26 22 4 -1.</_>
        <_>
          4 28 22 2 2.</_></rects>
      <tilted>0</tilted></_>
    <_>
      <rects>
        <_>
          5 0 6 4 -1.</_>
        <_>
          5 2 6 2 2.</_></rects>
      <tilted>0</tilted></_>
    <_>
      <rects>
        <_>
          5 2 1 12 -1.</_>
        <_>
          5 8 1 6 2.</_></rects>
      <tilted>0</tilted></_>
    <_>
      <rects>
        <_>
          5 2 10 20 -1.</_>
        <_>
          10 2 5 20 2.</_></rects>
      <tilted>0</tilted></_>
    <_>
      <rects>
        <_>
          6 0 22 14 -1.</_>
        <_>
          6 7 22 7 2.</_></rects>
      <tilted>0</tilted></_>
    <_>
      <rects>
        <_>
          6 1 8 13 -1.</_>
        <_>
          10 1 4 13 2.</_></rects>
      <tilted>0</tilted></_>
    <_>
      <rects>
        <_>
          6 10 2 12 -1.</_>
        <_>
          7 10 1 12 2.</_></rects>
      <tilted>0</tilted></_>
    <_>
      <rects>
        <_>
          7 7 2 10 -1.</_>
        <_>
          8 7 1 10 2.</_></rects>
      <tilted>0</tilted></_>
    <_>
      <rects>
        <_>
          7 15 2 1 -1.</_>
        <_>
          8 15 1 1 2.</_></rects>
      <tilted>0</tilted></_>
    <_>
      <rects>
        <_>
          8 12 14 1 -1.</_>
        <_>
          15 12 7 1 2.</_></rects>
      <tilted>0</tilted></_>
    <_>
      <rects>
        <_>
          8 18 18 1 -1.</_>
        <_>
          14 18 6 1 2.</_></rects>
      <tilted>0</tilted></_>
    <_>
      <rects>
        <_>
          9 2 2 18 -1.</_>
        <_>
          9 8 2 6 2.</_></rects>
      <tilted>0</tilted></_>
    <_>
      <rects>
        <_>
          9 2 16 25 -1.</_>
        <_>
          17 2 8 25 2.</_></rects>
      <tilted>0</tilted></_>
    <_>
      <rects>
        <_>
          9 11 2 7 -1.</_>
        <_>
          10 11 1 7 2.</_></rects>
      <tilted>0</tilted></_>
    <_>
      <rects>
        <_>
          9 17 2 9 -1.</_>
        <_>
          9 20 2 3 2.</_></rects>
      <tilted>0</tilted></_>
    <_>
      <rects>
        <_>
          9 19 6 11 -1.</_>
        <_>
          12 19 3 11 2.</_></rects>
      <tilted>0</tilted></_>
    <_>
      <rects>
        <_>
          9 26 4 3 -1.</_>
        <_>
          11 26 2 3 2.</_></rects>
      <tilted>0</tilted></_>
    <_>
      <rects>
        <_>
          10 11 9 8 -1.</_>
        <_>
          10 15 9 4 2.</_></rects>
      <tilted>0</tilted></_>
    <_>
      <rects>
        <_>
          10 12 2 8 -1.</_>
        <_>
          11 12 1 8 2.</_></rects>
      <tilted>0</tilted></_>
    <_>
      <rects>
        <_>
          10 12 8 10 -1.</_>
        <_>
          10 17 8 5 2.</_></rects>
      <tilted>0</tilted></_>
    <_>
      <rects>
        <_>
          10 21 6 6 -1.</_>
        <_>
          10 24 6 3 2.</_></rects>
      <tilted>0</tilted></_>
    <_>
      <rects>
        <_>
          10 22 16 8 -1.</_>
        <_>
          10 26 16 4 2.</_></rects>
      <tilted>0</tilted></_>
    <_>
      <rects>
        <_>
          11 8 2 17 -1.</_>
        <_>
          12 8 1 17 2.</_></rects>
      <tilted>0</tilted></_>
    <_>
      <rects>
        <_>
          11 12 2 6 -1.</_>
        <_>
          12 12 1 6 2.</_></rects>
      <tilted>0</tilted></_>
    <_>
      <rects>
        <_>
          12 9 2 13 -1.</_>
        <_>
          13 9 1 13 2.</_></rects>
      <tilted>0</tilted></_>
    <_>
      <rects>
        <_>
          12 20 5 6 -1.</_>
        <_>
          12 23 5 3 2.</_></rects>
      <tilted>0</tilted></_>
    <_>
      <rects>
        <_>
          13 0 4 11 -1.</_>
        <_>
          15 0 2 11 2.</_></rects>
      <tilted>0</tilted></_>
    <_>
      <rects>
        <_>
          13 6 5 4 -1.</_>
        <_>
          13 8 5 2 2.</_></rects>
      <tilted>0</tilted></_>
    <_>
      <rects>
        <_>
          14 1 3 16 -1.</_>
        <_>
          14 9 3 8 2.</_></rects>
      <tilted>0</tilted></_>
    <_>
      <rects>
        <_>
          14 2 8 26 -1.</_>
        <_>
          18 2 4 26 2.</_></rects>
      <tilted>0</tilted></_>
    <_>
      <rects>
        <_>
          14 7 16 22 -1.</_>
        <_>
          22 7 8 22 2.</_></rects>
      <tilted>0</tilted></_>
    <_>
      <rects>
        <_>
          15 4 4 8 -1.</_>
        <_>
          15 4 2 4 2.</_>
        <_>
          17 8 2 4 2.</_></rects>
      <tilted>0</tilted></_>
    <_>
      <rects>
        <_>
          15 7 15 10 -1.</_>
        <_>
          15 12 15 5 2.</_></rects>
      <tilted>0</tilted></_>
    <_>
      <rects>
        <_>
          15 11 4 9 -1.</_>
        <_>
          17 11 2 9 2.</_></rects>
      <tilted>0</tilted></_>
    <_>
      <rects>
        <_>
          15 17 8 5 -1.</_>
        <_>
          19 17 4 5 2.</_></rects>
      <tilted>0</tilted></_>
    <_>
      <rects>
        <_>
          16 13 2 8 -1.</_>
        <_>
          17 13 1 8 2.</_></rects>
      <tilted>0</tilted></_>
    <_>
      <rects>
        <_>
          17 2 4 6 -1.</_>
        <_>
          19 2 2 6 2.</_></rects>
      <tilted>0</tilted></_>
    <_>
      <rects>
        <_>
          17 9 2 5 -1.</_>
        <_>
          18 9 1 5 2.</_></rects>
      <tilted>0</tilted></_>
    <_>
      <rects>
        <_>
          18 0 8 27 -1.</_>
        <_>
          22 0 4 27 2.</_></rects>
      <tilted>0</tilted></_>
    <_>
      <rects>
        <_>
          18 7 8 7 -1.</_>
        <_>
          22 7 4 7 2.</_></rects>
      <tilted>0</tilted></_>
    <_>
      <rects>
        <_>
          18 11 2 2 -1.</_>
        <_>
          19 11 1 2 2.</_></rects>
      <tilted>0</tilted></_>
    <_>
      <rects>
        <_>
          18 11 2 5 -1.</_>
        <_>
          19 11 1 5 2.</_></rects>
      <tilted>0</tilted></_>
    <_>
      <rects>
        <_>
          19 0 2 5 -1.</_>
        <_>
          20 0 1 5 2.</_></rects>
      <tilted>0</tilted></_>
    <_>
      <rects>
        <_>
          19 0 2 16 -1.</_>
        <_>
          19 0 1 8 2.</_>
        <_>
          20 8 1 8 2.</_></rects>
      <tilted>0</tilted></_>
    <_>
      <rects>
        <_>
          19 0 6 18 -1.</_>
        <_>
          22 0 3 18 2.</_></rects>
      <tilted>0</tilted></_>
    <_>
      <rects>
        <_>
          19 21 3 2 -1.</_>
        <_>
          19 22 3 1 2.</_></rects>
      <tilted>0</tilted></_>
    <_>
      <rects>
        <_>
          19 25 2 5 -1.</_>
        <_>
          20 25 1 5 2.</_></rects>
      <tilted>0</tilted></_>
    <_>
      <rects>
        <_>
          19 27 2 3 -1.</_>
        <_>
          20 27 1 3 2.</_></rects>
      <tilted>0</tilted></_>
    <_>
      <rects>
        <_>
          20 2 6 10 -1.</_>
        <_>
          23 2 3 10 2.</_></rects>
      <tilted>0</tilted></_>
    <_>
      <rects>
        <_>
          20 4 4 18 -1.</_>
        <_>
          20 4 2 9 2.</_>
        <_>
          22 13 2 9 2.</_></rects>
      <tilted>0</tilted></_>
    <_>
      <rects>
        <_>
          20 9 2 2 -1.</_>
        <_>
          21 9 1 2 2.</_></rects>
      <tilted>0</tilted></_>
    <_>
      <rects>
        <_>
          20 11 2 3 -1.</_>
        <_>
          21 11 1 3 2.</_></rects>
      <tilted>0</tilted></_>
    <_>
      <rects>
        <_>
          20 11 2 10 -1.</_>
        <_>
          21 11 1 10 2.</_></rects>
      <tilted>0</tilted></_>
    <_>
      <rects>
        <_>
          20 12 2 1 -1.</_>
        <_>
          21 12 1 1 2.</_></rects>
      <tilted>0</tilted></_>
    <_>
      <rects>
        <_>
          20 13 2 1 -1.</_>
        <_>
          21 13 1 1 2.</_></rects>
      <tilted>0</tilted></_>
    <_>
      <rects>
        <_>
          21 1 2 27 -1.</_>
        <_>
          22 1 1 27 2.</_></rects>
      <tilted>0</tilted></_>
    <_>
      <rects>
        <_>
          21 7 2 12 -1.</_>
        <_>
          22 7 1 12 2.</_></rects>
      <tilted>0</tilted></_>
    <_>
      <rects>
        <_>
          21 16 2 1 -1.</_>
        <_>
          22 16 1 1 2.</_></rects>
      <tilted>0</tilted></_>
    <_>
      <rects>
        <_>
          21 22 7 6 -1.</_>
        <_>
          21 25 7 3 2.</_></rects>
      <tilted>0</tilted></_>
    <_>
      <rects>
        <_>
          22 11 2 7 -1.</_>
        <_>
          23 11 1 7 2.</_></rects>
      <tilted>0</tilted></_>
    <_>
      <rects>
        <_>
          23 2 3 6 -1.</_>
        <_>
          24 2 1 6 2.</_></rects>
      <tilted>0</tilted></_>
    <_>
      <rects>
        <_>
          23 2 4 4 -1.</_>
        <_>
          23 4 4 2 2.</_></rects>
      <tilted>0</tilted></_>
    <_>
      <rects>
        <_>
          24 0 4 4 -1.</_>
        <_>
          26 0 2 4 2.</_></rects>
      <tilted>0</tilted></_>
    <_>
      <rects>
        <_>
          24 1 5 6 -1.</_>
        <_>
          24 4 5 3 2.</_></rects>
      <tilted>0</tilted></_>
    <_>
      <rects>
        <_>
          24 14 2 2 -1.</_>
        <_>
          25 14 1 2 2.</_></rects>
      <tilted>0</tilted></_>
    <_>
      <rects>
        <_>
          24 23 1 6 -1.</_>
        <_>
          24 26 1 3 2.</_></rects>
      <tilted>0</tilted></_>
    <_>
      <rects>
        <_>
          25 0 4 2 -1.</_>
        <_>
          27 0 2 2 2.</_></rects>
      <tilted>0</tilted></_>
    <_>
      <rects>
        <_>
          25 1 3 4 -1.</_>
        <_>
          25 3 3 2 2.</_></rects>
      <tilted>0</tilted></_>
    <_>
      <rects>
        <_>
          27 2 2 24 -1.</_>
        <_>
          28 2 1 24 2.</_></rects>
      <tilted>0</tilted></_>
    <_>
      <rects>
        <_>
          27 4 2 16 -1.</_>
        <_>
          28 4 1 16 2.</_></rects>
      <tilted>0</tilted></_>
    <_>
      <rects>
        <_>
          27 8 2 18 -1.</_>
        <_>
          28 8 1 18 2.</_></rects>
      <tilted>0</tilted></_>
    <_>
      <rects>
        <_>
          28 3 2 17 -1.</_>
        <_>
          29 3 1 17 2.</_></rects>
      <tilted>0</tilted></_>
    <_>
      <rects>
        <_>
          28 5 2 15 -1.</_>
        <_>
          29 5 1 15 2.</_></rects>
      <tilted>0</tilted></_>
    <_>
      <rects>
        <_>
          28 6 2 16 -1.</_>
        <_>
          29 6 1 16 2.</_></rects>
      <tilted>0</tilted></_>
    <_>
      <rects>
        <_>
          28 17 2 2 -1.</_>
        <_>
          28 18 2 1 2.</_></rects>
      <tilted>0</tilted></_>
    <_>
      <rects>
        <_>
          29 12 1 2 -1.</_>
        <_>
          29 13 1 1 2.</_></rects>
      <tilted>0</tilted></_>
    <_>
      <rects>
        <_>
          29 16 1 2 -1.</_>
        <_>
          29 17 1 1 2.</_></rects>
      <tilted>0</tilted></_>
    <_>
      <rects>
        <_>
          29 17 1 2 -1.</_>
        <_>
          29 18 1 1 2.</_></rects>
      <tilted>0</tilted></_>
    <_>
      <rects>
        <_>
          29 24 1 2 -1.</_>
        <_>
          29 25 1 1 2.</_></rects>
      <tilted>0</tilted></_></features></cascade>
</opencv_storage>
