<?xml version="1.0"?>
<opencv_storage>
<stage1>
  <maxWeakCount>9</maxWeakCount>
  <stageThreshold>-9.3526542186737061e-01</stageThreshold>
  <weakClassifiers>
    <_>
      <internalNodes>
        0 -1 373575 -2.5121597573161125e-02</internalNodes>
      <leafValues>
        -9.4720494747161865e-01 3.9062500000000000e-02</leafValues></_>
    <_>
      <internalNodes>
        0 -1 215390 -4.9300156533718109e-02</internalNodes>
      <leafValues>
        -1. 2.1782241761684418e-02</leafValues></_>
    <_>
      <internalNodes>
        0 -1 393408 -9.9475858733057976e-03</internalNodes>
      <leafValues>
        8.7275326251983643e-01 -4.3960735201835632e-01</leafValues></_>
    <_>
      <internalNodes>
        0 -1 67142 2.5830923113971949e-03</internalNodes>
      <leafValues>
        -5.3668534755706787e-01 4.9218595027923584e-01</leafValues></_>
    <_>
      <internalNodes>
        0 -1 391287 -8.6144497618079185e-03</internalNodes>
      <leafValues>
        8.4325975179672241e-01 -2.6518285274505615e-01</leafValues></_>
    <_>
      <internalNodes>
        0 -1 197931 -5.3712222725152969e-02</internalNodes>
      <leafValues>
        -1. 2.7587711811065674e-01</leafValues></_>
    <_>
      <internalNodes>
        0 -1 118512 -1.4305938966572285e-02</internalNodes>
      <leafValues>
        6.3079881668090820e-01 -4.0275436639785767e-01</leafValues></_>
    <_>
      <internalNodes>
        0 -1 355602 -5.3972692694514990e-04</internalNodes>
      <leafValues>
        8.5474359989166260e-01 -2.9512310028076172e-01</leafValues></_>
    <_>
      <internalNodes>
        0 -1 355941 3.1545106321573257e-04</internalNodes>
      <leafValues>
        -3.6150553822517395e-01 7.5121688842773438e-01</leafValues></_></weakClassifiers></stage1>
</opencv_storage>
