<?xml version="1.0"?>
<opencv_storage>
<stage2>
  <maxWeakCount>10</maxWeakCount>
  <stageThreshold>-1.0866543054580688e+00</stageThreshold>
  <weakClassifiers>
    <_>
      <internalNodes>
        0 -1 5194 -1.2989896535873413e-01</internalNodes>
      <leafValues>
        -8.6413043737411499e-01 2.1951219439506531e-01</leafValues></_>
    <_>
      <internalNodes>
        0 -1 14508 -9.8342727869749069e-03</internalNodes>
      <leafValues>
        7.6837676763534546e-01 -4.9741619825363159e-01</leafValues></_>
    <_>
      <internalNodes>
        0 -1 393486 -9.2028444632887840e-03</internalNodes>
      <leafValues>
        6.9790005683898926e-01 -3.1898826360702515e-01</leafValues></_>
    <_>
      <internalNodes>
        0 -1 305855 -9.1523968148976564e-04</internalNodes>
      <leafValues>
        3.2582890987396240e-01 -6.7230355739593506e-01</leafValues></_>
    <_>
      <internalNodes>
        0 -1 203227 -5.4859615862369537e-02</internalNodes>
      <leafValues>
        -6.9931125640869141e-01 3.3301976323127747e-01</leafValues></_>
    <_>
      <internalNodes>
        0 -1 325505 -2.4749399162828922e-03</internalNodes>
      <leafValues>
        6.2689203023910522e-01 -3.2204502820968628e-01</leafValues></_>
    <_>
      <internalNodes>
        0 -1 282781 1.9688144326210022e-02</internalNodes>
      <leafValues>
        -4.3304175138473511e-01 4.3678992986679077e-01</leafValues></_>
    <_>
      <internalNodes>
        0 -1 316193 -6.5598376095294952e-03</internalNodes>
      <leafValues>
        7.7660286426544189e-01 -2.3239670693874359e-01</leafValues></_>
    <_>
      <internalNodes>
        0 -1 107264 7.9234531149268150e-03</internalNodes>
      <leafValues>
        -2.4488785862922668e-01 7.1034169197082520e-01</leafValues></_>
    <_>
      <internalNodes>
        0 -1 203818 -1.0723562538623810e-01</internalNodes>
      <leafValues>
        -9.4354742765426636e-01 2.1846617758274078e-01</leafValues></_></weakClassifiers></stage2>
</opencv_storage>
