<?xml version="1.0"?>
<opencv_storage>
<stage4>
  <maxWeakCount>13</maxWeakCount>
  <stageThreshold>-8.5146534442901611e-01</stageThreshold>
  <weakClassifiers>
    <_>
      <internalNodes>
        0 -1 393248 -1.6805022954940796e-02</internalNodes>
      <leafValues>
        4.4966444373130798e-01 -7.6741367578506470e-01</leafValues></_>
    <_>
      <internalNodes>
        0 -1 30928 2.4519335478544235e-02</internalNodes>
      <leafValues>
        -5.1123660802841187e-01 4.3623852729797363e-01</leafValues></_>
    <_>
      <internalNodes>
        0 -1 229411 -7.3469867929816246e-03</internalNodes>
      <leafValues>
        -8.7951123714447021e-01 1.8750569224357605e-01</leafValues></_>
    <_>
      <internalNodes>
        0 -1 230053 2.2915091365575790e-02</internalNodes>
      <leafValues>
        1.4725193381309509e-01 -9.0366518497467041e-01</leafValues></_>
    <_>
      <internalNodes>
        0 -1 143307 -1.3379074633121490e-02</internalNodes>
      <leafValues>
        -9.3173038959503174e-01 1.4545063674449921e-01</leafValues></_>
    <_>
      <internalNodes>
        0 -1 331187 -2.4374114349484444e-02</internalNodes>
      <leafValues>
        -8.3660197257995605e-01 1.6217561066150665e-01</leafValues></_>
    <_>
      <internalNodes>
        0 -1 287839 -2.6567205786705017e-02</internalNodes>
      <leafValues>
        3.6639317870140076e-01 -4.0880200266838074e-01</leafValues></_>
    <_>
      <internalNodes>
        0 -1 378535 -2.1986998617649078e-03</internalNodes>
      <leafValues>
        -8.8730078935623169e-01 1.6249874234199524e-01</leafValues></_>
    <_>
      <internalNodes>
        0 -1 394711 -1.9239253015257418e-04</internalNodes>
      <leafValues>
        -7.3966205120086670e-01 1.6761206090450287e-01</leafValues></_>
    <_>
      <internalNodes>
        0 -1 218416 -1.4342078939080238e-03</internalNodes>
      <leafValues>
        -8.1657510995864868e-01 1.4351136982440948e-01</leafValues></_>
    <_>
      <internalNodes>
        0 -1 216403 1.5811018645763397e-02</internalNodes>
      <leafValues>
        1.2548561394214630e-01 -8.3756041526794434e-01</leafValues></_>
    <_>
      <internalNodes>
        0 -1 259866 3.5531600005924702e-03</internalNodes>
      <leafValues>
        -3.1961533427238464e-01 4.7981205582618713e-01</leafValues></_>
    <_>
      <internalNodes>
        0 -1 383744 1.1618451680988073e-03</internalNodes>
      <leafValues>
        1.8871499598026276e-01 -8.3452820777893066e-01</leafValues></_></weakClassifiers></stage4>
</opencv_storage>
