<?xml version="1.0"?>
<opencv_storage>
<cascade>
  <stageType>BOOST</stageType>
  <featureType>HAAR</featureType>
  <height>20</height>
  <width>20</width>
  <stageParams>
    <boostType>GAB</boostType>
    <minHitRate>9.9500000476837158e-01</minHitRate>
    <maxFalseAlarm>2.0000000298023224e-01</maxFalseAlarm>
    <weightTrimRate>9.4999999999999996e-01</weightTrimRate>
    <maxDepth>1</maxDepth>
    <maxWeakCount>100</maxWeakCount></stageParams>
  <featureParams>
    <maxCatCount>0</maxCatCount>
    <featSize>1</featSize>
    <mode>BASIC</mode></featureParams>
  <stageNum>10</stageNum>
  <stages>
    <!-- stage 0 -->
    <_>
      <maxWeakCount>9</maxWeakCount>
      <stageThreshold>-1.4748406410217285e+00</stageThreshold>
      <weakClassifiers>
        <_>
          <internalNodes>
            0 -1 43 1.0493525117635727e-01</internalNodes>
          <leafValues>
            -8.1730771064758301e-01 4.7619047760963440e-01</leafValues></_>
        <_>
          <internalNodes>
            0 -1 28 1.1050093919038773e-02</internalNodes>
          <leafValues>
            -5.9238648414611816e-01 6.7436742782592773e-01</leafValues></_>
        <_>
          <internalNodes>
            0 -1 20 7.8468816354870796e-04</internalNodes>
          <leafValues>
            -5.2331662178039551e-01 6.6158735752105713e-01</leafValues></_>
        <_>
          <internalNodes>
            0 -1 94 -7.4569936841726303e-03</internalNodes>
          <leafValues>
            6.9980490207672119e-01 -3.1282198429107666e-01</leafValues></_>
        <_>
          <internalNodes>
            0 -1 26 -4.7564715147018433e-02</internalNodes>
          <leafValues>
            -8.6038732528686523e-01 2.7418956160545349e-01</leafValues></_>
        <_>
          <internalNodes>
            0 -1 55 -8.6826244369149208e-03</internalNodes>
          <leafValues>
            6.1501896381378174e-01 -3.9622548222541809e-01</leafValues></_>
        <_>
          <internalNodes>
            0 -1 7 -1.1208618059754372e-02</internalNodes>
          <leafValues>
            7.7895522117614746e-01 -2.9642042517662048e-01</leafValues></_>
        <_>
          <internalNodes>
            0 -1 122 -1.6730763018131256e-02</internalNodes>
          <leafValues>
            8.0907320976257324e-01 -2.9051256179809570e-01</leafValues></_>
        <_>
          <internalNodes>
            0 -1 63 1.0431287810206413e-03</internalNodes>
          <leafValues>
            -4.9892449378967285e-01 4.6871644258499146e-01</leafValues></_></weakClassifiers></_>
    <!-- stage 1 -->
    <_>
      <maxWeakCount>10</maxWeakCount>
      <stageThreshold>-1.5268418788909912e+00</stageThreshold>
      <weakClassifiers>
        <_>
          <internalNodes>
            0 -1 18 -1.0347732901573181e-01</internalNodes>
          <leafValues>
            -8.7817257642745972e-01 -6.7961163818836212e-02</leafValues></_>
        <_>
          <internalNodes>
            0 -1 40 -2.8494037687778473e-02</internalNodes>
          <leafValues>
            5.1780676841735840e-01 -5.3895497322082520e-01</leafValues></_>
        <_>
          <internalNodes>
            0 -1 29 -1.0582324862480164e-01</internalNodes>
          <leafValues>
            -9.8336327075958252e-01 2.0286606252193451e-01</leafValues></_>
        <_>
          <internalNodes>
            0 -1 116 8.8091278448700905e-03</internalNodes>
          <leafValues>
            -4.1439494490623474e-01 5.9371399879455566e-01</leafValues></_>
        <_>
          <internalNodes>
            0 -1 118 -2.0378371700644493e-03</internalNodes>
          <leafValues>
            6.2333834171295166e-01 -3.4178626537322998e-01</leafValues></_>
        <_>
          <internalNodes>
            0 -1 82 -2.9734470881521702e-03</internalNodes>
          <leafValues>
            3.8938331604003906e-01 -6.5484493970870972e-01</leafValues></_>
        <_>
          <internalNodes>
            0 -1 2 -2.2041421383619308e-02</internalNodes>
          <leafValues>
            6.8289148807525635e-01 -3.3480614423751831e-01</leafValues></_>
        <_>
          <internalNodes>
            0 -1 8 5.4948572069406509e-03</internalNodes>
          <leafValues>
            -7.1917778253555298e-01 3.1916534900665283e-01</leafValues></_>
        <_>
          <internalNodes>
            0 -1 37 -2.5968851987272501e-03</internalNodes>
          <leafValues>
            6.7906898260116577e-01 -3.4511891007423401e-01</leafValues></_>
        <_>
          <internalNodes>
            0 -1 41 4.7742375172674656e-03</internalNodes>
          <leafValues>
            -4.9338260293006897e-01 4.3626272678375244e-01</leafValues></_></weakClassifiers></_>
    <!-- stage 2 -->
    <_>
      <maxWeakCount>9</maxWeakCount>
      <stageThreshold>-1.3477203845977783e+00</stageThreshold>
      <weakClassifiers>
        <_>
          <internalNodes>
            0 -1 22 -1.0157710313796997e-01</internalNodes>
          <leafValues>
            -8.8878762722015381e-01 1.8610422313213348e-01</leafValues></_>
        <_>
          <internalNodes>
            0 -1 123 -1.9981065765023232e-02</internalNodes>
          <leafValues>
            6.7591804265975952e-01 -5.5077868700027466e-01</leafValues></_>
        <_>
          <internalNodes>
            0 -1 46 -9.4001330435276031e-02</internalNodes>
          <leafValues>
            -1. 2.6203885674476624e-01</leafValues></_>
        <_>
          <internalNodes>
            0 -1 96 8.0945761874318123e-03</internalNodes>
          <leafValues>
            -3.8047790527343750e-01 6.5477561950683594e-01</leafValues></_>
        <_>
          <internalNodes>
            0 -1 16 -4.4630188494920731e-03</internalNodes>
          <leafValues>
            6.1112093925476074e-01 -2.6116433739662170e-01</leafValues></_>
        <_>
          <internalNodes>
            0 -1 25 1.5243171714246273e-02</internalNodes>
          <leafValues>
            -2.6605114340782166e-01 6.2164247035980225e-01</leafValues></_>
        <_>
          <internalNodes>
            0 -1 1 2.1713659167289734e-01</internalNodes>
          <leafValues>
            2.5618511438369751e-01 -8.1891977787017822e-01</leafValues></_>
        <_>
          <internalNodes>
            0 -1 61 3.6985336337238550e-03</internalNodes>
          <leafValues>
            -4.6938699483871460e-01 3.5331821441650391e-01</leafValues></_>
        <_>
          <internalNodes>
            0 -1 21 -1.1118675768375397e-01</internalNodes>
          <leafValues>
            -6.8616038560867310e-01 3.1540840864181519e-01</leafValues></_></weakClassifiers></_>
    <!-- stage 3 -->
    <_>
      <maxWeakCount>12</maxWeakCount>
      <stageThreshold>-1.3816071748733521e+00</stageThreshold>
      <weakClassifiers>
        <_>
          <internalNodes>
            0 -1 4 -1.7925080657005310e-01</internalNodes>
          <leafValues>
            -8.0097877979278564e-01 2.9927006363868713e-01</leafValues></_>
        <_>
          <internalNodes>
            0 -1 27 1.9715996459126472e-02</internalNodes>
          <leafValues>
            -5.0890344381332397e-01 5.5009609460830688e-01</leafValues></_>
        <_>
          <internalNodes>
            0 -1 121 -1.7868485301733017e-02</internalNodes>
          <leafValues>
            6.3676518201828003e-01 -3.2057523727416992e-01</leafValues></_>
        <_>
          <internalNodes>
            0 -1 107 -2.2865661978721619e-01</internalNodes>
          <leafValues>
            -3.6720225214958191e-01 4.4511738419532776e-01</leafValues></_>
        <_>
          <internalNodes>
            0 -1 70 -6.8831788375973701e-03</internalNodes>
          <leafValues>
            -7.8701686859130859e-01 2.1961760520935059e-01</leafValues></_>
        <_>
          <internalNodes>
            0 -1 33 6.1058655381202698e-02</internalNodes>
          <leafValues>
            -2.6452654600143433e-01 6.4431214332580566e-01</leafValues></_>
        <_>
          <internalNodes>
            0 -1 6 -1.6573473811149597e-02</internalNodes>
          <leafValues>
            8.1656908988952637e-01 -2.1721638739109039e-01</leafValues></_>
        <_>
          <internalNodes>
            0 -1 74 -1.7091489862650633e-03</internalNodes>
          <leafValues>
            3.2183146476745605e-01 -5.4422402381896973e-01</leafValues></_>
        <_>
          <internalNodes>
            0 -1 17 1.8203739076852798e-02</internalNodes>
          <leafValues>
            -2.2164481878280640e-01 6.5141564607620239e-01</leafValues></_>
        <_>
          <internalNodes>
            0 -1 10 5.5426061153411865e-03</internalNodes>
          <leafValues>
            -5.7430160045623779e-01 2.8270974755287170e-01</leafValues></_>
        <_>
          <internalNodes>
            0 -1 106 4.1848767548799515e-02</internalNodes>
          <leafValues>
            -1.8581010401248932e-01 9.2535471916198730e-01</leafValues></_>
        <_>
          <internalNodes>
            0 -1 59 -1.0132218711078167e-02</internalNodes>
          <leafValues>
            6.8109166622161865e-01 -1.4793394505977631e-01</leafValues></_></weakClassifiers></_>
    <!-- stage 4 -->
    <_>
      <maxWeakCount>12</maxWeakCount>
      <stageThreshold>-1.1721298694610596e+00</stageThreshold>
      <weakClassifiers>
        <_>
          <internalNodes>
            0 -1 44 -4.2684370279312134e-01</internalNodes>
          <leafValues>
            -7.3176121711730957e-01 6.5034967660903931e-01</leafValues></_>
        <_>
          <internalNodes>
            0 -1 19 1.4886434189975262e-02</internalNodes>
          <leafValues>
            -4.5189872384071350e-01 4.1054934263229370e-01</leafValues></_>
        <_>
          <internalNodes>
            0 -1 113 -2.0362073555588722e-03</internalNodes>
          <leafValues>
            -9.1308826208114624e-01 1.6577823460102081e-01</leafValues></_>
        <_>
          <internalNodes>
            0 -1 112 1.2694455217570066e-03</internalNodes>
          <leafValues>
            2.4650290608406067e-01 -7.2751849889755249e-01</leafValues></_>
        <_>
          <internalNodes>
            0 -1 111 -8.3442206960171461e-04</internalNodes>
          <leafValues>
            -7.0668613910675049e-01 1.4015400409698486e-01</leafValues></_>
        <_>
          <internalNodes>
            0 -1 47 -1.0507320985198021e-03</internalNodes>
          <leafValues>
            -7.3782312870025635e-01 1.9384032487869263e-01</leafValues></_>
        <_>
          <internalNodes>
            0 -1 97 1.1586923152208328e-02</internalNodes>
          <leafValues>
            -2.1295842528343201e-01 7.6474398374557495e-01</leafValues></_>
        <_>
          <internalNodes>
            0 -1 91 9.3904938548803329e-03</internalNodes>
          <leafValues>
            2.3118762671947479e-01 -6.7704826593399048e-01</leafValues></_>
        <_>
          <internalNodes>
            0 -1 39 -3.0617572367191315e-02</internalNodes>
          <leafValues>
            -7.3830240964889526e-01 1.6635566949844360e-01</leafValues></_>
        <_>
          <internalNodes>
            0 -1 87 1.2370015028864145e-03</internalNodes>
          <leafValues>
            1.3823778927326202e-01 -8.1347632408142090e-01</leafValues></_>
        <_>
          <internalNodes>
            0 -1 38 -1.1354366317391396e-02</internalNodes>
          <leafValues>
            6.4404213428497314e-01 -2.6400840282440186e-01</leafValues></_>
        <_>
          <internalNodes>
            0 -1 53 2.5076385587453842e-02</internalNodes>
          <leafValues>
            1.8176750838756561e-01 -8.5286372900009155e-01</leafValues></_></weakClassifiers></_>
    <!-- stage 5 -->
    <_>
      <maxWeakCount>14</maxWeakCount>
      <stageThreshold>-1.1719895601272583e+00</stageThreshold>
      <weakClassifiers>
        <_>
          <internalNodes>
            0 -1 34 2.1298384666442871e-01</internalNodes>
          <leafValues>
            -7.7741140127182007e-01 1.4982578158378601e-01</leafValues></_>
        <_>
          <internalNodes>
            0 -1 124 -2.4781476706266403e-02</internalNodes>
          <leafValues>
            6.1214953660964966e-01 -4.0778040885925293e-01</leafValues></_>
        <_>
          <internalNodes>
            0 -1 88 -1.5568549279123545e-03</internalNodes>
          <leafValues>
            -7.6824438571929932e-01 2.0713441073894501e-01</leafValues></_>
        <_>
          <internalNodes>
            0 -1 0 -2.1087041124701500e-02</internalNodes>
          <leafValues>
            4.8071920871734619e-01 -3.1631436944007874e-01</leafValues></_>
        <_>
          <internalNodes>
            0 -1 65 -1.0657011298462749e-03</internalNodes>
          <leafValues>
            -8.7092292308807373e-01 2.1083879470825195e-01</leafValues></_>
        <_>
          <internalNodes>
            0 -1 30 -6.1270035803318024e-02</internalNodes>
          <leafValues>
            4.5732712745666504e-01 -3.3536866307258606e-01</leafValues></_>
        <_>
          <internalNodes>
            0 -1 9 -1.9878802821040154e-02</internalNodes>
          <leafValues>
            -9.4297927618026733e-01 1.7345073819160461e-01</leafValues></_>
        <_>
          <internalNodes>
            0 -1 117 -8.6380131542682648e-03</internalNodes>
          <leafValues>
            6.3108128309249878e-01 -2.4486005306243896e-01</leafValues></_>
        <_>
          <internalNodes>
            0 -1 76 -1.5598768368363380e-03</internalNodes>
          <leafValues>
            -7.5000959634780884e-01 1.9206219911575317e-01</leafValues></_>
        <_>
          <internalNodes>
            0 -1 15 -7.0580013561993837e-04</internalNodes>
          <leafValues>
            -7.5845444202423096e-01 1.6497887670993805e-01</leafValues></_>
        <_>
          <internalNodes>
            0 -1 15 7.4157427297905087e-04</internalNodes>
          <leafValues>
            1.9161345064640045e-01 -6.5576863288879395e-01</leafValues></_>
        <_>
          <internalNodes>
            0 -1 66 3.1124111264944077e-03</internalNodes>
          <leafValues>
            1.0707435011863708e-01 -9.5257860422134399e-01</leafValues></_>
        <_>
          <internalNodes>
            0 -1 80 -1.0772705078125000e-02</internalNodes>
          <leafValues>
            4.8249578475952148e-01 -2.8131961822509766e-01</leafValues></_>
        <_>
          <internalNodes>
            0 -1 60 -8.7190885096788406e-03</internalNodes>
          <leafValues>
            -8.4012448787689209e-01 1.7251707613468170e-01</leafValues></_></weakClassifiers></_>
    <!-- stage 6 -->
    <_>
      <maxWeakCount>14</maxWeakCount>
      <stageThreshold>-1.3934228420257568e+00</stageThreshold>
      <weakClassifiers>
        <_>
          <internalNodes>
            0 -1 72 1.7038870602846146e-02</internalNodes>
          <leafValues>
            -7.0501476526260376e-01 3.8888889551162720e-01</leafValues></_>
        <_>
          <internalNodes>
            0 -1 73 1.6354683786630630e-02</internalNodes>
          <leafValues>
            9.2272758483886719e-02 -8.1935352087020874e-01</leafValues></_>
        <_>
          <internalNodes>
            0 -1 3 1.1969478800892830e-02</internalNodes>
          <leafValues>
            -5.3706991672515869e-01 2.1511065959930420e-01</leafValues></_>
        <_>
          <internalNodes>
            0 -1 93 -2.7216892689466476e-02</internalNodes>
          <leafValues>
            -9.5717728137969971e-01 1.7720836400985718e-01</leafValues></_>
        <_>
          <internalNodes>
            0 -1 102 -9.4518670812249184e-03</internalNodes>
          <leafValues>
            5.6145274639129639e-01 -2.9095774888992310e-01</leafValues></_>
        <_>
          <internalNodes>
            0 -1 108 -4.0834676474332809e-03</internalNodes>
          <leafValues>
            4.6734783053398132e-01 -2.8361710906028748e-01</leafValues></_>
        <_>
          <internalNodes>
            0 -1 92 -3.4888029098510742e-02</internalNodes>
          <leafValues>
            -7.5289976596832275e-01 2.1901857852935791e-01</leafValues></_>
        <_>
          <internalNodes>
            0 -1 127 -7.3217344470322132e-04</internalNodes>
          <leafValues>
            -7.4926090240478516e-01 1.1662999540567398e-01</leafValues></_>
        <_>
          <internalNodes>
            0 -1 127 6.8355235271155834e-04</internalNodes>
          <leafValues>
            1.9485872983932495e-01 -7.5933051109313965e-01</leafValues></_>
        <_>
          <internalNodes>
            0 -1 99 1.5475224703550339e-02</internalNodes>
          <leafValues>
            1.2896679341793060e-01 -8.2411104440689087e-01</leafValues></_>
        <_>
          <internalNodes>
            0 -1 14 -4.3805842287838459e-03</internalNodes>
          <leafValues>
            5.1569247245788574e-01 -3.1477460265159607e-01</leafValues></_>
        <_>
          <internalNodes>
            0 -1 110 -6.8182579707354307e-04</internalNodes>
          <leafValues>
            4.6400117874145508e-01 -2.5111418962478638e-01</leafValues></_>
        <_>
          <internalNodes>
            0 -1 58 -9.4823809340596199e-03</internalNodes>
          <leafValues>
            6.5099501609802246e-01 -1.8587397038936615e-01</leafValues></_>
        <_>
          <internalNodes>
            0 -1 77 7.2893938049674034e-03</internalNodes>
          <leafValues>
            1.8327467143535614e-01 -8.4455746412277222e-01</leafValues></_></weakClassifiers></_>
    <!-- stage 7 -->
    <_>
      <maxWeakCount>16</maxWeakCount>
      <stageThreshold>-9.6486741304397583e-01</stageThreshold>
      <weakClassifiers>
        <_>
          <internalNodes>
            0 -1 125 -9.0228281915187836e-03</internalNodes>
          <leafValues>
            -3.5830620676279068e-02 -7.4518018960952759e-01</leafValues></_>
        <_>
          <internalNodes>
            0 -1 31 -1.0143878869712353e-02</internalNodes>
          <leafValues>
            6.4835584163665771e-01 -2.9643198847770691e-01</leafValues></_>
        <_>
          <internalNodes>
            0 -1 23 4.4266000390052795e-02</internalNodes>
          <leafValues>
            1.4743521809577942e-01 -8.3779972791671753e-01</leafValues></_>
        <_>
          <internalNodes>
            0 -1 42 -1.9245347008109093e-02</internalNodes>
          <leafValues>
            -8.1436610221862793e-01 1.5240541100502014e-01</leafValues></_>
        <_>
          <internalNodes>
            0 -1 56 -2.8103020042181015e-02</internalNodes>
          <leafValues>
            5.1123434305191040e-01 -2.3041342198848724e-01</leafValues></_>
        <_>
          <internalNodes>
            0 -1 83 -5.7153170928359032e-03</internalNodes>
          <leafValues>
            -6.2890553474426270e-01 1.8985566496849060e-01</leafValues></_>
        <_>
          <internalNodes>
            0 -1 114 -6.9090481847524643e-03</internalNodes>
          <leafValues>
            6.0429233312606812e-01 -2.1074111759662628e-01</leafValues></_>
        <_>
          <internalNodes>
            0 -1 11 -4.7549919690936804e-04</internalNodes>
          <leafValues>
            -7.0894157886505127e-01 1.6526649892330170e-01</leafValues></_>
        <_>
          <internalNodes>
            0 -1 95 5.9937322512269020e-03</internalNodes>
          <leafValues>
            -2.4027557671070099e-01 4.8264378309249878e-01</leafValues></_>
        <_>
          <internalNodes>
            0 -1 13 -1.3716566562652588e-01</internalNodes>
          <leafValues>
            -1.8839475512504578e-01 6.1293828487396240e-01</leafValues></_>
        <_>
          <internalNodes>
            0 -1 79 -2.3347586393356323e-02</internalNodes>
          <leafValues>
            -7.9724347591400146e-01 1.5972965955734253e-01</leafValues></_>
        <_>
          <internalNodes>
            0 -1 51 -6.2755821272730827e-03</internalNodes>
          <leafValues>
            6.1872661113739014e-01 -2.1094855666160583e-01</leafValues></_>
        <_>
          <internalNodes>
            0 -1 52 5.0109713338315487e-03</internalNodes>
          <leafValues>
            -2.2130443155765533e-01 5.2041459083557129e-01</leafValues></_>
        <_>
          <internalNodes>
            0 -1 48 -1.0071473661810160e-03</internalNodes>
          <leafValues>
            -7.0524203777313232e-01 1.6560295224189758e-01</leafValues></_>
        <_>
          <internalNodes>
            0 -1 69 -3.3504965249449015e-03</internalNodes>
          <leafValues>
            5.1409840583801270e-01 -2.2903822362422943e-01</leafValues></_>
        <_>
          <internalNodes>
            0 -1 101 -1.6503781080245972e-02</internalNodes>
          <leafValues>
            -6.5807813405990601e-01 1.9244994223117828e-01</leafValues></_></weakClassifiers></_>
    <!-- stage 8 -->
    <_>
      <maxWeakCount>16</maxWeakCount>
      <stageThreshold>-1.1969981193542480e+00</stageThreshold>
      <weakClassifiers>
        <_>
          <internalNodes>
            0 -1 35 -2.2157879173755646e-01</internalNodes>
          <leafValues>
            -1.0408922284841537e-01 -8.7733888626098633e-01</leafValues></_>
        <_>
          <internalNodes>
            0 -1 54 -5.4342597723007202e-02</internalNodes>
          <leafValues>
            6.0713630169630051e-02 -8.4285825490951538e-01</leafValues></_>
        <_>
          <internalNodes>
            0 -1 126 -1.1147676035761833e-02</internalNodes>
          <leafValues>
            5.2021551132202148e-01 -3.0313354730606079e-01</leafValues></_>
        <_>
          <internalNodes>
            0 -1 90 3.9169616997241974e-02</internalNodes>
          <leafValues>
            1.5031279623508453e-01 -8.6690717935562134e-01</leafValues></_>
        <_>
          <internalNodes>
            0 -1 115 4.9821520224213600e-03</internalNodes>
          <leafValues>
            -2.4333350360393524e-01 4.9761074781417847e-01</leafValues></_>
        <_>
          <internalNodes>
            0 -1 50 2.5956653058528900e-02</internalNodes>
          <leafValues>
            1.3998979330062866e-01 -7.8973478078842163e-01</leafValues></_>
        <_>
          <internalNodes>
            0 -1 49 -4.8586357384920120e-02</internalNodes>
          <leafValues>
            -8.8097018003463745e-01 1.2442607432603836e-01</leafValues></_>
        <_>
          <internalNodes>
            0 -1 103 -5.5702878162264824e-03</internalNodes>
          <leafValues>
            5.1649820804595947e-01 -2.2286842763423920e-01</leafValues></_>
        <_>
          <internalNodes>
            0 -1 100 6.4428700134158134e-03</internalNodes>
          <leafValues>
            -2.2440434992313385e-01 5.2114850282669067e-01</leafValues></_>
        <_>
          <internalNodes>
            0 -1 98 2.4966099299490452e-03</internalNodes>
          <leafValues>
            1.3280826807022095e-01 -8.7408870458602905e-01</leafValues></_>
        <_>
          <internalNodes>
            0 -1 105 -1.6276350244879723e-02</internalNodes>
          <leafValues>
            -9.4651854038238525e-01 7.6803781092166901e-02</leafValues></_>
        <_>
          <internalNodes>
            0 -1 57 -4.4768158346414566e-02</internalNodes>
          <leafValues>
            7.2930239140987396e-02 -9.7083556652069092e-01</leafValues></_>
        <_>
          <internalNodes>
            0 -1 78 1.1600130237638950e-02</internalNodes>
          <leafValues>
            -3.3141723275184631e-01 3.1260353326797485e-01</leafValues></_>
        <_>
          <internalNodes>
            0 -1 64 7.0996447466313839e-03</internalNodes>
          <leafValues>
            -1.5617512166500092e-01 7.2808229923248291e-01</leafValues></_>
        <_>
          <internalNodes>
            0 -1 67 -9.4900298863649368e-03</internalNodes>
          <leafValues>
            -9.0149909257888794e-01 1.4573283493518829e-01</leafValues></_>
        <_>
          <internalNodes>
            0 -1 36 -9.8708365112543106e-04</internalNodes>
          <leafValues>
            4.1597452759742737e-01 -2.8760650753974915e-01</leafValues></_></weakClassifiers></_>
    <!-- stage 9 -->
    <_>
      <maxWeakCount>18</maxWeakCount>
      <stageThreshold>-1.2818328142166138e+00</stageThreshold>
      <weakClassifiers>
        <_>
          <internalNodes>
            0 -1 81 -9.4209965318441391e-03</internalNodes>
          <leafValues>
            -3.1192660331726074e-01 -8.2269501686096191e-01</leafValues></_>
        <_>
          <internalNodes>
            0 -1 85 -9.8313577473163605e-04</internalNodes>
          <leafValues>
            2.7469661831855774e-01 -4.1565063595771790e-01</leafValues></_>
        <_>
          <internalNodes>
            0 -1 75 3.7998496554791927e-03</internalNodes>
          <leafValues>
            8.4689781069755554e-02 -9.6479964256286621e-01</leafValues></_>
        <_>
          <internalNodes>
            0 -1 84 -2.8563886880874634e-03</internalNodes>
          <leafValues>
            2.0571330189704895e-01 -4.2535567283630371e-01</leafValues></_>
        <_>
          <internalNodes>
            0 -1 104 -1.5237308107316494e-03</internalNodes>
          <leafValues>
            3.7281882762908936e-01 -2.5913646817207336e-01</leafValues></_>
        <_>
          <internalNodes>
            0 -1 89 -2.8727287426590919e-03</internalNodes>
          <leafValues>
            -8.9069885015487671e-01 1.0121253132820129e-01</leafValues></_>
        <_>
          <internalNodes>
            0 -1 109 -1.6413631383329630e-03</internalNodes>
          <leafValues>
            3.7796992063522339e-01 -2.2652511298656464e-01</leafValues></_>
        <_>
          <internalNodes>
            0 -1 12 -1.1457593645900488e-03</internalNodes>
          <leafValues>
            -7.2025901079177856e-01 1.2500338256359100e-01</leafValues></_>
        <_>
          <internalNodes>
            0 -1 24 2.5987215340137482e-02</internalNodes>
          <leafValues>
            -1.5278372168540955e-01 5.7335478067398071e-01</leafValues></_>
        <_>
          <internalNodes>
            0 -1 5 5.6525163352489471e-02</internalNodes>
          <leafValues>
            -3.0597025156021118e-01 3.0911001563072205e-01</leafValues></_>
        <_>
          <internalNodes>
            0 -1 62 3.7480050232261419e-03</internalNodes>
          <leafValues>
            -2.3840753734111786e-01 3.8274332880973816e-01</leafValues></_>
        <_>
          <internalNodes>
            0 -1 71 3.1564111122861505e-04</internalNodes>
          <leafValues>
            -3.7311127781867981e-01 2.6647800207138062e-01</leafValues></_>
        <_>
          <internalNodes>
            0 -1 32 -2.0038135349750519e-02</internalNodes>
          <leafValues>
            -8.0227893590927124e-01 1.1599408090114594e-01</leafValues></_>
        <_>
          <internalNodes>
            0 -1 119 7.3888977058231831e-03</internalNodes>
          <leafValues>
            -2.7551835775375366e-01 4.0459239482879639e-01</leafValues></_>
        <_>
          <internalNodes>
            0 -1 120 -7.9999007284641266e-03</internalNodes>
          <leafValues>
            8.6002331972122192e-01 -1.0270253568887711e-01</leafValues></_>
        <_>
          <internalNodes>
            0 -1 86 2.4832030758261681e-03</internalNodes>
          <leafValues>
            1.3745999336242676e-01 -8.3452767133712769e-01</leafValues></_>
        <_>
          <internalNodes>
            0 -1 68 8.2395914942026138e-03</internalNodes>
          <leafValues>
            -2.0528396964073181e-01 5.1642841100692749e-01</leafValues></_>
        <_>
          <internalNodes>
            0 -1 45 -2.5506224483251572e-03</internalNodes>
          <leafValues>
            4.0964362025260925e-01 -2.4074326455593109e-01</leafValues></_></weakClassifiers></_></stages>
  <features>
    <_>
      <rects>
        <_>
          0 0 2 20 -1.</_>
        <_>
          1 0 1 20 2.</_></rects>
      <tilted>0</tilted></_>
    <_>
      <rects>
        <_>
          0 0 12 19 -1.</_>
        <_>
          6 0 6 19 2.</_></rects>
      <tilted>0</tilted></_>
    <_>
      <rects>
        <_>
          0 1 2 19 -1.</_>
        <_>
          1 1 1 19 2.</_></rects>
      <tilted>0</tilted></_>
    <_>
      <rects>
        <_>
          0 1 6 11 -1.</_>
        <_>
          3 1 3 11 2.</_></rects>
      <tilted>0</tilted></_>
    <_>
      <rects>
        <_>
          0 3 6 13 -1.</_>
        <_>
          2 3 2 13 2.</_></rects>
      <tilted>0</tilted></_>
    <_>
      <rects>
        <_>
          0 3 6 14 -1.</_>
        <_>
          3 3 3 14 2.</_></rects>
      <tilted>0</tilted></_>
    <_>
      <rects>
        <_>
          0 6 2 6 -1.</_>
        <_>
          1 6 1 6 2.</_></rects>
      <tilted>0</tilted></_>
    <_>
      <rects>
        <_>
          0 6 2 14 -1.</_>
        <_>
          1 6 1 14 2.</_></rects>
      <tilted>0</tilted></_>
    <_>
      <rects>
        <_>
          0 6 14 9 -1.</_>
        <_>
          7 6 7 9 2.</_></rects>
      <tilted>0</tilted></_>
    <_>
      <rects>
        <_>
          0 6 10 4 -1.</_>
        <_>
          0 8 10 2 2.</_></rects>
      <tilted>0</tilted></_>
    <_>
      <rects>
        <_>
          0 7 10 3 -1.</_>
        <_>
          5 7 5 3 2.</_></rects>
      <tilted>0</tilted></_>
    <_>
      <rects>
        <_>
          0 9 1 2 -1.</_>
        <_>
          0 10 1 1 2.</_></rects>
      <tilted>0</tilted></_>
    <_>
      <rects>
        <_>
          0 10 2 2 -1.</_>
        <_>
          0 11 2 1 2.</_></rects>
      <tilted>0</tilted></_>
    <_>
      <rects>
        <_>
          0 10 9 8 -1.</_>
        <_>
          3 10 3 8 2.</_></rects>
      <tilted>0</tilted></_>
    <_>
      <rects>
        <_>
          0 12 2 8 -1.</_>
        <_>
          0 12 1 4 2.</_>
        <_>
          1 16 1 4 2.</_></rects>
      <tilted>0</tilted></_>
    <_>
      <rects>
        <_>
          0 14 1 2 -1.</_>
        <_>
          0 15 1 1 2.</_></rects>
      <tilted>0</tilted></_>
    <_>
      <rects>
        <_>
          0 16 4 4 -1.</_>
        <_>
          0 16 2 2 2.</_>
        <_>
          2 18 2 2 2.</_></rects>
      <tilted>0</tilted></_>
    <_>
      <rects>
        <_>
          0 18 20 2 -1.</_>
        <_>
          0 19 20 1 2.</_></rects>
      <tilted>0</tilted></_>
    <_>
      <rects>
        <_>
          1 1 6 6 -1.</_>
        <_>
          3 1 2 6 2.</_></rects>
      <tilted>0</tilted></_>
    <_>
      <rects>
        <_>
          1 4 2 11 -1.</_>
        <_>
          2 4 1 11 2.</_></rects>
      <tilted>0</tilted></_>
    <_>
      <rects>
        <_>
          1 8 2 1 -1.</_>
        <_>
          2 8 1 1 2.</_></rects>
      <tilted>0</tilted></_>
    <_>
      <rects>
        <_>
          1 8 3 9 -1.</_>
        <_>
          1 11 3 3 2.</_></rects>
      <tilted>0</tilted></_>
    <_>
      <rects>
        <_>
          1 11 6 5 -1.</_>
        <_>
          3 11 2 5 2.</_></rects>
      <tilted>0</tilted></_>
    <_>
      <rects>
        <_>
          2 0 8 8 -1.</_>
        <_>
          6 0 4 8 2.</_></rects>
      <tilted>0</tilted></_>
    <_>
      <rects>
        <_>
          2 1 4 4 -1.</_>
        <_>
          2 3 4 2 2.</_></rects>
      <tilted>0</tilted></_>
    <_>
      <rects>
        <_>
          2 4 2 8 -1.</_>
        <_>
          3 4 1 8 2.</_></rects>
      <tilted>0</tilted></_>
    <_>
      <rects>
        <_>
          2 4 3 3 -1.</_>
        <_>
          2 5 3 1 2.</_></rects>
      <tilted>0</tilted></_>
    <_>
      <rects>
        <_>
          2 6 2 12 -1.</_>
        <_>
          3 6 1 12 2.</_></rects>
      <tilted>0</tilted></_>
    <_>
      <rects>
        <_>
          2 7 2 10 -1.</_>
        <_>
          3 7 1 10 2.</_></rects>
      <tilted>0</tilted></_>
    <_>
      <rects>
        <_>
          2 10 3 5 -1.</_>
        <_>
          3 10 1 5 2.</_></rects>
      <tilted>0</tilted></_>
    <_>
      <rects>
        <_>
          2 14 15 6 -1.</_>
        <_>
          2 17 15 3 2.</_></rects>
      <tilted>0</tilted></_>
    <_>
      <rects>
        <_>
          2 17 4 2 -1.</_>
        <_>
          2 18 4 1 2.</_></rects>
      <tilted>0</tilted></_>
    <_>
      <rects>
        <_>
          3 0 4 10 -1.</_>
        <_>
          5 0 2 10 2.</_></rects>
      <tilted>0</tilted></_>
    <_>
      <rects>
        <_>
          3 0 6 8 -1.</_>
        <_>
          3 4 6 4 2.</_></rects>
      <tilted>0</tilted></_>
    <_>
      <rects>
        <_>
          3 0 16 10 -1.</_>
        <_>
          3 5 16 5 2.</_></rects>
      <tilted>0</tilted></_>
    <_>
      <rects>
        <_>
          3 6 9 9 -1.</_>
        <_>
          6 6 3 9 2.</_></rects>
      <tilted>0</tilted></_>
    <_>
      <rects>
        <_>
          3 8 2 1 -1.</_>
        <_>
          4 8 1 1 2.</_></rects>
      <tilted>0</tilted></_>
    <_>
      <rects>
        <_>
          3 8 2 3 -1.</_>
        <_>
          4 8 1 3 2.</_></rects>
      <tilted>0</tilted></_>
    <_>
      <rects>
        <_>
          3 8 2 5 -1.</_>
        <_>
          4 8 1 5 2.</_></rects>
      <tilted>0</tilted></_>
    <_>
      <rects>
        <_>
          3 8 14 4 -1.</_>
        <_>
          10 8 7 4 2.</_></rects>
      <tilted>0</tilted></_>
    <_>
      <rects>
        <_>
          3 14 8 4 -1.</_>
        <_>
          3 16 8 2 2.</_></rects>
      <tilted>0</tilted></_>
    <_>
      <rects>
        <_>
          4 1 1 10 -1.</_>
        <_>
          4 6 1 5 2.</_></rects>
      <tilted>0</tilted></_>
    <_>
      <rects>
        <_>
          4 1 6 10 -1.</_>
        <_>
          7 1 3 10 2.</_></rects>
      <tilted>0</tilted></_>
    <_>
      <rects>
        <_>
          4 1 14 8 -1.</_>
        <_>
          4 5 14 4 2.</_></rects>
      <tilted>0</tilted></_>
    <_>
      <rects>
        <_>
          4 1 16 18 -1.</_>
        <_>
          4 7 16 6 2.</_></rects>
      <tilted>0</tilted></_>
    <_>
      <rects>
        <_>
          4 8 2 6 -1.</_>
        <_>
          4 8 1 3 2.</_>
        <_>
          5 11 1 3 2.</_></rects>
      <tilted>0</tilted></_>
    <_>
      <rects>
        <_>
          4 8 1 12 -1.</_>
        <_>
          4 12 1 4 2.</_></rects>
      <tilted>0</tilted></_>
    <_>
      <rects>
        <_>
          4 18 2 2 -1.</_>
        <_>
          5 18 1 2 2.</_></rects>
      <tilted>0</tilted></_>
    <_>
      <rects>
        <_>
          5 1 2 2 -1.</_>
        <_>
          6 1 1 2 2.</_></rects>
      <tilted>0</tilted></_>
    <_>
      <rects>
        <_>
          5 1 8 14 -1.</_>
        <_>
          5 1 4 7 2.</_>
        <_>
          9 8 4 7 2.</_></rects>
      <tilted>0</tilted></_>
    <_>
      <rects>
        <_>
          6 0 4 18 -1.</_>
        <_>
          6 0 2 9 2.</_>
        <_>
          8 9 2 9 2.</_></rects>
      <tilted>0</tilted></_>
    <_>
      <rects>
        <_>
          6 5 2 6 -1.</_>
        <_>
          7 5 1 6 2.</_></rects>
      <tilted>0</tilted></_>
    <_>
      <rects>
        <_>
          6 7 2 4 -1.</_>
        <_>
          7 7 1 4 2.</_></rects>
      <tilted>0</tilted></_>
    <_>
      <rects>
        <_>
          6 8 10 5 -1.</_>
        <_>
          11 8 5 5 2.</_></rects>
      <tilted>0</tilted></_>
    <_>
      <rects>
        <_>
          6 9 8 3 -1.</_>
        <_>
          6 10 8 1 2.</_></rects>
      <tilted>0</tilted></_>
    <_>
      <rects>
        <_>
          6 13 5 4 -1.</_>
        <_>
          6 15 5 2 2.</_></rects>
      <tilted>0</tilted></_>
    <_>
      <rects>
        <_>
          6 14 4 4 -1.</_>
        <_>
          6 16 4 2 2.</_></rects>
      <tilted>0</tilted></_>
    <_>
      <rects>
        <_>
          7 4 9 4 -1.</_>
        <_>
          10 4 3 4 2.</_></rects>
      <tilted>0</tilted></_>
    <_>
      <rects>
        <_>
          7 4 10 2 -1.</_>
        <_>
          7 4 5 1 2.</_>
        <_>
          12 5 5 1 2.</_></rects>
      <tilted>0</tilted></_>
    <_>
      <rects>
        <_>
          7 7 2 9 -1.</_>
        <_>
          8 7 1 9 2.</_></rects>
      <tilted>0</tilted></_>
    <_>
      <rects>
        <_>
          7 7 5 6 -1.</_>
        <_>
          7 10 5 3 2.</_></rects>
      <tilted>0</tilted></_>
    <_>
      <rects>
        <_>
          7 8 4 3 -1.</_>
        <_>
          9 8 2 3 2.</_></rects>
      <tilted>0</tilted></_>
    <_>
      <rects>
        <_>
          7 9 4 2 -1.</_>
        <_>
          9 9 2 2 2.</_></rects>
      <tilted>0</tilted></_>
    <_>
      <rects>
        <_>
          7 10 9 2 -1.</_>
        <_>
          7 11 9 1 2.</_></rects>
      <tilted>0</tilted></_>
    <_>
      <rects>
        <_>
          7 16 6 2 -1.</_>
        <_>
          7 17 6 1 2.</_></rects>
      <tilted>0</tilted></_>
    <_>
      <rects>
        <_>
          7 18 2 1 -1.</_>
        <_>
          8 18 1 1 2.</_></rects>
      <tilted>0</tilted></_>
    <_>
      <rects>
        <_>
          7 18 2 2 -1.</_>
        <_>
          8 18 1 2 2.</_></rects>
      <tilted>0</tilted></_>
    <_>
      <rects>
        <_>
          8 2 4 4 -1.</_>
        <_>
          10 2 2 4 2.</_></rects>
      <tilted>0</tilted></_>
    <_>
      <rects>
        <_>
          8 2 10 2 -1.</_>
        <_>
          8 2 5 1 2.</_>
        <_>
          13 3 5 1 2.</_></rects>
      <tilted>0</tilted></_>
    <_>
      <rects>
        <_>
          8 3 4 2 -1.</_>
        <_>
          8 4 4 1 2.</_></rects>
      <tilted>0</tilted></_>
    <_>
      <rects>
        <_>
          8 6 5 8 -1.</_>
        <_>
          8 10 5 4 2.</_></rects>
      <tilted>0</tilted></_>
    <_>
      <rects>
        <_>
          8 10 4 2 -1.</_>
        <_>
          8 11 4 1 2.</_></rects>
      <tilted>0</tilted></_>
    <_>
      <rects>
        <_>
          9 6 2 8 -1.</_>
        <_>
          10 6 1 8 2.</_></rects>
      <tilted>0</tilted></_>
    <_>
      <rects>
        <_>
          9 7 4 6 -1.</_>
        <_>
          9 10 4 3 2.</_></rects>
      <tilted>0</tilted></_>
    <_>
      <rects>
        <_>
          9 12 6 2 -1.</_>
        <_>
          12 12 3 2 2.</_></rects>
      <tilted>0</tilted></_>
    <_>
      <rects>
        <_>
          9 17 2 3 -1.</_>
        <_>
          10 17 1 3 2.</_></rects>
      <tilted>0</tilted></_>
    <_>
      <rects>
        <_>
          10 0 2 2 -1.</_>
        <_>
          11 0 1 2 2.</_></rects>
      <tilted>0</tilted></_>
    <_>
      <rects>
        <_>
          10 1 4 3 -1.</_>
        <_>
          12 1 2 3 2.</_></rects>
      <tilted>0</tilted></_>
    <_>
      <rects>
        <_>
          10 2 2 6 -1.</_>
        <_>
          10 5 2 3 2.</_></rects>
      <tilted>0</tilted></_>
    <_>
      <rects>
        <_>
          10 3 4 16 -1.</_>
        <_>
          10 3 2 8 2.</_>
        <_>
          12 11 2 8 2.</_></rects>
      <tilted>0</tilted></_>
    <_>
      <rects>
        <_>
          10 5 2 9 -1.</_>
        <_>
          11 5 1 9 2.</_></rects>
      <tilted>0</tilted></_>
    <_>
      <rects>
        <_>
          10 5 4 9 -1.</_>
        <_>
          12 5 2 9 2.</_></rects>
      <tilted>0</tilted></_>
    <_>
      <rects>
        <_>
          10 5 4 12 -1.</_>
        <_>
          12 5 2 12 2.</_></rects>
      <tilted>0</tilted></_>
    <_>
      <rects>
        <_>
          10 8 4 6 -1.</_>
        <_>
          10 11 4 3 2.</_></rects>
      <tilted>0</tilted></_>
    <_>
      <rects>
        <_>
          10 11 4 8 -1.</_>
        <_>
          12 11 2 8 2.</_></rects>
      <tilted>0</tilted></_>
    <_>
      <rects>
        <_>
          10 13 2 1 -1.</_>
        <_>
          11 13 1 1 2.</_></rects>
      <tilted>0</tilted></_>
    <_>
      <rects>
        <_>
          10 17 2 3 -1.</_>
        <_>
          11 17 1 3 2.</_></rects>
      <tilted>0</tilted></_>
    <_>
      <rects>
        <_>
          10 18 2 1 -1.</_>
        <_>
          11 18 1 1 2.</_></rects>
      <tilted>0</tilted></_>
    <_>
      <rects>
        <_>
          10 18 2 2 -1.</_>
        <_>
          11 18 1 2 2.</_></rects>
      <tilted>0</tilted></_>
    <_>
      <rects>
        <_>
          11 0 2 3 -1.</_>
        <_>
          12 0 1 3 2.</_></rects>
      <tilted>0</tilted></_>
    <_>
      <rects>
        <_>
          11 0 6 20 -1.</_>
        <_>
          14 0 3 20 2.</_></rects>
      <tilted>0</tilted></_>
    <_>
      <rects>
        <_>
          11 1 6 8 -1.</_>
        <_>
          11 1 3 4 2.</_>
        <_>
          14 5 3 4 2.</_></rects>
      <tilted>0</tilted></_>
    <_>
      <rects>
        <_>
          11 3 6 16 -1.</_>
        <_>
          14 3 3 16 2.</_></rects>
      <tilted>0</tilted></_>
    <_>
      <rects>
        <_>
          11 4 6 6 -1.</_>
        <_>
          14 4 3 6 2.</_></rects>
      <tilted>0</tilted></_>
    <_>
      <rects>
        <_>
          11 5 2 9 -1.</_>
        <_>
          12 5 1 9 2.</_></rects>
      <tilted>0</tilted></_>
    <_>
      <rects>
        <_>
          12 3 2 7 -1.</_>
        <_>
          13 3 1 7 2.</_></rects>
      <tilted>0</tilted></_>
    <_>
      <rects>
        <_>
          12 3 2 16 -1.</_>
        <_>
          13 3 1 16 2.</_></rects>
      <tilted>0</tilted></_>
    <_>
      <rects>
        <_>
          12 8 2 7 -1.</_>
        <_>
          13 8 1 7 2.</_></rects>
      <tilted>0</tilted></_>
    <_>
      <rects>
        <_>
          13 0 2 3 -1.</_>
        <_>
          14 0 1 3 2.</_></rects>
      <tilted>0</tilted></_>
    <_>
      <rects>
        <_>
          13 1 4 8 -1.</_>
        <_>
          15 1 2 8 2.</_></rects>
      <tilted>0</tilted></_>
    <_>
      <rects>
        <_>
          13 3 2 17 -1.</_>
        <_>
          14 3 1 17 2.</_></rects>
      <tilted>0</tilted></_>
    <_>
      <rects>
        <_>
          13 3 4 12 -1.</_>
        <_>
          15 3 2 12 2.</_></rects>
      <tilted>0</tilted></_>
    <_>
      <rects>
        <_>
          13 5 2 10 -1.</_>
        <_>
          14 5 1 10 2.</_></rects>
      <tilted>0</tilted></_>
    <_>
      <rects>
        <_>
          13 6 2 4 -1.</_>
        <_>
          14 6 1 4 2.</_></rects>
      <tilted>0</tilted></_>
    <_>
      <rects>
        <_>
          13 7 2 2 -1.</_>
        <_>
          14 7 1 2 2.</_></rects>
      <tilted>0</tilted></_>
    <_>
      <rects>
        <_>
          14 0 4 8 -1.</_>
        <_>
          14 0 2 4 2.</_>
        <_>
          16 4 2 4 2.</_></rects>
      <tilted>0</tilted></_>
    <_>
      <rects>
        <_>
          14 0 5 4 -1.</_>
        <_>
          14 2 5 2 2.</_></rects>
      <tilted>0</tilted></_>
    <_>
      <rects>
        <_>
          14 3 6 12 -1.</_>
        <_>
          14 7 6 4 2.</_></rects>
      <tilted>0</tilted></_>
    <_>
      <rects>
        <_>
          14 4 2 11 -1.</_>
        <_>
          15 4 1 11 2.</_></rects>
      <tilted>0</tilted></_>
    <_>
      <rects>
        <_>
          14 9 2 2 -1.</_>
        <_>
          15 9 1 2 2.</_></rects>
      <tilted>0</tilted></_>
    <_>
      <rects>
        <_>
          14 13 2 2 -1.</_>
        <_>
          14 13 1 1 2.</_>
        <_>
          15 14 1 1 2.</_></rects>
      <tilted>0</tilted></_>
    <_>
      <rects>
        <_>
          15 0 2 4 -1.</_>
        <_>
          16 0 1 4 2.</_></rects>
      <tilted>0</tilted></_>
    <_>
      <rects>
        <_>
          16 0 2 2 -1.</_>
        <_>
          17 0 1 2 2.</_></rects>
      <tilted>0</tilted></_>
    <_>
      <rects>
        <_>
          16 0 2 3 -1.</_>
        <_>
          17 0 1 3 2.</_></rects>
      <tilted>0</tilted></_>
    <_>
      <rects>
        <_>
          16 1 2 10 -1.</_>
        <_>
          17 1 1 10 2.</_></rects>
      <tilted>0</tilted></_>
    <_>
      <rects>
        <_>
          16 1 3 2 -1.</_>
        <_>
          16 2 3 1 2.</_></rects>
      <tilted>0</tilted></_>
    <_>
      <rects>
        <_>
          16 1 4 4 -1.</_>
        <_>
          16 3 4 2 2.</_></rects>
      <tilted>0</tilted></_>
    <_>
      <rects>
        <_>
          16 3 2 7 -1.</_>
        <_>
          17 3 1 7 2.</_></rects>
      <tilted>0</tilted></_>
    <_>
      <rects>
        <_>
          16 15 1 4 -1.</_>
        <_>
          16 17 1 2 2.</_></rects>
      <tilted>0</tilted></_>
    <_>
      <rects>
        <_>
          17 1 2 16 -1.</_>
        <_>
          18 1 1 16 2.</_></rects>
      <tilted>0</tilted></_>
    <_>
      <rects>
        <_>
          17 11 2 2 -1.</_>
        <_>
          18 11 1 2 2.</_></rects>
      <tilted>0</tilted></_>
    <_>
      <rects>
        <_>
          18 1 2 12 -1.</_>
        <_>
          19 1 1 12 2.</_></rects>
      <tilted>0</tilted></_>
    <_>
      <rects>
        <_>
          18 2 2 15 -1.</_>
        <_>
          19 2 1 15 2.</_></rects>
      <tilted>0</tilted></_>
    <_>
      <rects>
        <_>
          18 3 2 11 -1.</_>
        <_>
          19 3 1 11 2.</_></rects>
      <tilted>0</tilted></_>
    <_>
      <rects>
        <_>
          18 3 2 12 -1.</_>
        <_>
          19 3 1 12 2.</_></rects>
      <tilted>0</tilted></_>
    <_>
      <rects>
        <_>
          18 5 2 4 -1.</_>
        <_>
          19 5 1 4 2.</_></rects>
      <tilted>0</tilted></_>
    <_>
      <rects>
        <_>
          18 9 2 5 -1.</_>
        <_>
          19 9 1 5 2.</_></rects>
      <tilted>0</tilted></_>
    <_>
      <rects>
        <_>
          19 12 1 2 -1.</_>
        <_>
          19 13 1 1 2.</_></rects>
      <tilted>0</tilted></_></features></cascade>
</opencv_storage>
