<?xml version="1.0"?>
<opencv_storage>
<stage7>
  <maxWeakCount>16</maxWeakCount>
  <stageThreshold>-9.6486741304397583e-01</stageThreshold>
  <weakClassifiers>
    <_>
      <internalNodes>
        0 -1 77951 -9.0228281915187836e-03</internalNodes>
      <leafValues>
        -3.5830620676279068e-02 -7.4518018960952759e-01</leafValues></_>
    <_>
      <internalNodes>
        0 -1 21617 -1.0143878869712353e-02</internalNodes>
      <leafValues>
        6.4835584163665771e-01 -2.9643198847770691e-01</leafValues></_>
    <_>
      <internalNodes>
        0 -1 14999 4.4266000390052795e-02</internalNodes>
      <leafValues>
        1.4743521809577942e-01 -8.3779972791671753e-01</leafValues></_>
    <_>
      <internalNodes>
        0 -1 28814 -1.9245347008109093e-02</internalNodes>
      <leafValues>
        -8.1436610221862793e-01 1.5240541100502014e-01</leafValues></_>
    <_>
      <internalNodes>
        0 -1 44723 -2.8103020042181015e-02</internalNodes>
      <leafValues>
        5.1123434305191040e-01 -2.3041342198848724e-01</leafValues></_>
    <_>
      <internalNodes>
        0 -1 61150 -5.7153170928359032e-03</internalNodes>
      <leafValues>
        -6.2890553474426270e-01 1.8985566496849060e-01</leafValues></_>
    <_>
      <internalNodes>
        0 -1 75356 -6.9090481847524643e-03</internalNodes>
      <leafValues>
        6.0429233312606812e-01 -2.1074111759662628e-01</leafValues></_>
    <_>
      <internalNodes>
        0 -1 5305 -4.7549919690936804e-04</internalNodes>
      <leafValues>
        -7.0894157886505127e-01 1.6526649892330170e-01</leafValues></_>
    <_>
      <internalNodes>
        0 -1 66593 5.9937322512269020e-03</internalNodes>
      <leafValues>
        -2.4027557671070099e-01 4.8264378309249878e-01</leafValues></_>
    <_>
      <internalNodes>
        0 -1 5784 -1.3716566562652588e-01</internalNodes>
      <leafValues>
        -1.8839475512504578e-01 6.1293828487396240e-01</leafValues></_>
    <_>
      <internalNodes>
        0 -1 59742 -2.3347586393356323e-02</internalNodes>
      <leafValues>
        -7.9724347591400146e-01 1.5972965955734253e-01</leafValues></_>
    <_>
      <internalNodes>
        0 -1 42186 -6.2755821272730827e-03</internalNodes>
      <leafValues>
        6.1872661113739014e-01 -2.1094855666160583e-01</leafValues></_>
    <_>
      <internalNodes>
        0 -1 42915 5.0109713338315487e-03</internalNodes>
      <leafValues>
        -2.2130443155765533e-01 5.2041459083557129e-01</leafValues></_>
    <_>
      <internalNodes>
        0 -1 34745 -1.0071473661810160e-03</internalNodes>
      <leafValues>
        -7.0524203777313232e-01 1.6560295224189758e-01</leafValues></_>
    <_>
      <internalNodes>
        0 -1 51422 -3.3504965249449015e-03</internalNodes>
      <leafValues>
        5.1409840583801270e-01 -2.2903822362422943e-01</leafValues></_>
    <_>
      <internalNodes>
        0 -1 69495 -1.6503781080245972e-02</internalNodes>
      <leafValues>
        -6.5807813405990601e-01 1.9244994223117828e-01</leafValues></_></weakClassifiers></stage7>
</opencv_storage>
