<?xml version="1.0"?>
<opencv_storage>
<stage2>
  <maxWeakCount>9</maxWeakCount>
  <stageThreshold>-1.3477203845977783e+00</stageThreshold>
  <weakClassifiers>
    <_>
      <internalNodes>
        0 -1 13353 -1.0157710313796997e-01</internalNodes>
      <leafValues>
        -8.8878762722015381e-01 1.8610422313213348e-01</leafValues></_>
    <_>
      <internalNodes>
        0 -1 77869 -1.9981065765023232e-02</internalNodes>
      <leafValues>
        6.7591804265975952e-01 -5.5077868700027466e-01</leafValues></_>
    <_>
      <internalNodes>
        0 -1 31978 -9.4001330435276031e-02</internalNodes>
      <leafValues>
        -1. 2.6203885674476624e-01</leafValues></_>
    <_>
      <internalNodes>
        0 -1 66615 8.0945761874318123e-03</internalNodes>
      <leafValues>
        -3.8047790527343750e-01 6.5477561950683594e-01</leafValues></_>
    <_>
      <internalNodes>
        0 -1 7321 -4.4630188494920731e-03</internalNodes>
      <leafValues>
        6.1112093925476074e-01 -2.6116433739662170e-01</leafValues></_>
    <_>
      <internalNodes>
        0 -1 17296 1.5243171714246273e-02</internalNodes>
      <leafValues>
        -2.6605114340782166e-01 6.2164247035980225e-01</leafValues></_>
    <_>
      <internalNodes>
        0 -1 392 2.1713659167289734e-01</internalNodes>
      <leafValues>
        2.5618511438369751e-01 -8.1891977787017822e-01</leafValues></_>
    <_>
      <internalNodes>
        0 -1 48266 3.6985336337238550e-03</internalNodes>
      <leafValues>
        -4.6938699483871460e-01 3.5331821441650391e-01</leafValues></_>
    <_>
      <internalNodes>
        0 -1 12264 -1.1118675768375397e-01</internalNodes>
      <leafValues>
        -6.8616038560867310e-01 3.1540840864181519e-01</leafValues></_></weakClassifiers></stage2>
</opencv_storage>
