<?xml version="1.0"?>
<opencv_storage>
<stage7>
  <maxWeakCount>5</maxWeakCount>
  <stageThreshold>-1.2937552928924561e+00</stageThreshold>
  <weakClassifiers>
    <_>
      <internalNodes>
        0 -1 551748 -1.0845486819744110e-01</internalNodes>
      <leafValues>
        7.8770947456359863e-01 -6.1165046691894531e-01</leafValues></_>
    <_>
      <internalNodes>
        0 -1 67350 -3.0577219149563462e-05</internalNodes>
      <leafValues>
        -8.3493232727050781e-01 2.5112402439117432e-01</leafValues></_>
    <_>
      <internalNodes>
        0 -1 1973865 -4.4380556792020798e-03</internalNodes>
      <leafValues>
        -8.4101682901382446e-01 2.2017748653888702e-01</leafValues></_>
    <_>
      <internalNodes>
        0 -1 2335350 -1.6683239489793777e-02</internalNodes>
      <leafValues>
        6.9140642881393433e-01 -3.4264856576919556e-01</leafValues></_>
    <_>
      <internalNodes>
        0 -1 2847962 -6.4690120052546263e-04</internalNodes>
      <leafValues>
        -8.8530838489532471e-01 2.7529865503311157e-01</leafValues></_></weakClassifiers></stage7>
</opencv_storage>
