<?xml version="1.0"?>
<opencv_storage>
<stage4>
  <maxWeakCount>10</maxWeakCount>
  <stageThreshold>-1.0908722877502441e+00</stageThreshold>
  <weakClassifiers>
    <_>
      <internalNodes>
        0 -1 1039 -4.2568552494049072e-01</internalNodes>
      <leafValues>
        -6.8846815824508667e-01 7.2463768720626831e-01</leafValues></_>
    <_>
      <internalNodes>
        0 -1 161556 -1.1716429144144058e-02</internalNodes>
      <leafValues>
        5.0186181068420410e-01 -3.8847097754478455e-01</leafValues></_>
    <_>
      <internalNodes>
        0 -1 2199 -2.5018826127052307e-02</internalNodes>
      <leafValues>
        6.4920270442962646e-01 -3.0742129683494568e-01</leafValues></_>
    <_>
      <internalNodes>
        0 -1 139201 7.7850557863712311e-04</internalNodes>
      <leafValues>
        2.6214322447776794e-01 -8.7497919797897339e-01</leafValues></_>
    <_>
      <internalNodes>
        0 -1 139197 -6.7658990155905485e-04</internalNodes>
      <leafValues>
        -7.9474490880966187e-01 2.4297748506069183e-01</leafValues></_>
    <_>
      <internalNodes>
        0 -1 148968 -3.0861643608659506e-03</internalNodes>
      <leafValues>
        -8.8262474536895752e-01 1.0813057422637939e-01</leafValues></_>
    <_>
      <internalNodes>
        0 -1 89834 8.9814810780808330e-04</internalNodes>
      <leafValues>
        1.7785045504570007e-01 -7.5865197181701660e-01</leafValues></_>
    <_>
      <internalNodes>
        0 -1 121240 -1.1293932329863310e-03</internalNodes>
      <leafValues>
        -8.4024834632873535e-01 1.6604338586330414e-01</leafValues></_>
    <_>
      <internalNodes>
        0 -1 7409 -1.7216899141203612e-04</internalNodes>
      <leafValues>
        -6.9066345691680908e-01 1.8111570179462433e-01</leafValues></_>
    <_>
      <internalNodes>
        0 -1 38933 -5.9066130779683590e-04</internalNodes>
      <leafValues>
        -7.3317313194274902e-01 1.7439609766006470e-01</leafValues></_></weakClassifiers></stage4>
</opencv_storage>
