<?xml version="1.0"?>
<opencv_storage>
<stage4>
  <maxWeakCount>8</maxWeakCount>
  <stageThreshold>-1.8759002685546875e+00</stageThreshold>
  <weakClassifiers>
    <_>
      <internalNodes>
        0 -1 1719 -6.2676620483398438e-01</internalNodes>
      <leafValues>
        -8.1840950250625610e-01 5.2709358930587769e-01</leafValues></_>
    <_>
      <internalNodes>
        0 -1 5037 -2.2926911711692810e-02</internalNodes>
      <leafValues>
        7.1735394001007080e-01 -4.6050444245338440e-01</leafValues></_>
    <_>
      <internalNodes>
        0 -1 393249 -1.1359754018485546e-02</internalNodes>
      <leafValues>
        7.1936118602752686e-01 -2.8666546940803528e-01</leafValues></_>
    <_>
      <internalNodes>
        0 -1 117209 -6.7970700562000275e-02</internalNodes>
      <leafValues>
        7.1404641866683960e-01 -2.5827673077583313e-01</leafValues></_>
    <_>
      <internalNodes>
        0 -1 295650 8.6804162710905075e-03</internalNodes>
      <leafValues>
        2.3803049325942993e-01 -8.8273388147354126e-01</leafValues></_>
    <_>
      <internalNodes>
        0 -1 295275 -3.9998500142246485e-04</internalNodes>
      <leafValues>
        -7.9792439937591553e-01 2.0989435911178589e-01</leafValues></_>
    <_>
      <internalNodes>
        0 -1 394646 -2.0386831602081656e-04</internalNodes>
      <leafValues>
        -8.3344066143035889e-01 1.5707391500473022e-01</leafValues></_>
    <_>
      <internalNodes>
        0 -1 98030 5.1196332788094878e-04</internalNodes>
      <leafValues>
        1.0873302817344666e-01 -9.1391456127166748e-01</leafValues></_></weakClassifiers></stage4>
</opencv_storage>
