<?xml version="1.0"?>
<opencv_storage>
<stage2>
  <maxWeakCount>8</maxWeakCount>
  <stageThreshold>-1.4801576137542725e+00</stageThreshold>
  <weakClassifiers>
    <_>
      <internalNodes>
        0 -1 393484 -9.7021255642175674e-03</internalNodes>
      <leafValues>
        5.0526314973831177e-01 -8.0496895313262939e-01</leafValues></_>
    <_>
      <internalNodes>
        0 -1 334071 -2.4632047861814499e-02</internalNodes>
      <leafValues>
        -7.8882616758346558e-01 4.0104496479034424e-01</leafValues></_>
    <_>
      <internalNodes>
        0 -1 391287 -8.6324298754334450e-03</internalNodes>
      <leafValues>
        8.3682906627655029e-01 -4.0151369571685791e-01</leafValues></_>
    <_>
      <internalNodes>
        0 -1 162075 -9.2494692653417587e-03</internalNodes>
      <leafValues>
        -1. 3.0100515484809875e-01</leafValues></_>
    <_>
      <internalNodes>
        0 -1 9436 -1.2048936448991299e-02</internalNodes>
      <leafValues>
        8.1402105093002319e-01 -3.6475291848182678e-01</leafValues></_>
    <_>
      <internalNodes>
        0 -1 297933 -3.6894776858389378e-03</internalNodes>
      <leafValues>
        6.2192130088806152e-01 -3.7223127484321594e-01</leafValues></_>
    <_>
      <internalNodes>
        0 -1 364302 -8.6205115076154470e-04</internalNodes>
      <leafValues>
        6.7087876796722412e-01 -2.9825726151466370e-01</leafValues></_>
    <_>
      <internalNodes>
        0 -1 201570 -1.1020533740520477e-01</internalNodes>
      <leafValues>
        -9.2499577999114990e-01 2.5523489713668823e-01</leafValues></_></weakClassifiers></stage2>
</opencv_storage>
