<?xml version="1.0"?>
<opencv_storage>
<stage6>
  <maxWeakCount>14</maxWeakCount>
  <stageThreshold>-1.6145370006561279e+00</stageThreshold>
  <weakClassifiers>
    <_>
      <internalNodes>
        0 -1 245435 -7.8116701915860176e-03</internalNodes>
      <leafValues>
        3.8582676649093628e-01 -7.4656307697296143e-01</leafValues></_>
    <_>
      <internalNodes>
        0 -1 308926 7.3998300358653069e-03</internalNodes>
      <leafValues>
        -4.9516838788986206e-01 3.3440244197845459e-01</leafValues></_>
    <_>
      <internalNodes>
        0 -1 262151 -3.7865331396460533e-03</internalNodes>
      <leafValues>
        -7.8516787290573120e-01 1.5692117810249329e-01</leafValues></_>
    <_>
      <internalNodes>
        0 -1 361432 -4.3397778645157814e-03</internalNodes>
      <leafValues>
        6.2767666578292847e-01 -2.2598475217819214e-01</leafValues></_>
    <_>
      <internalNodes>
        0 -1 144597 -1.9748477265238762e-02</internalNodes>
      <leafValues>
        -9.9130833148956299e-01 1.5317547321319580e-01</leafValues></_>
    <_>
      <internalNodes>
        0 -1 120821 6.2785044312477112e-02</internalNodes>
      <leafValues>
        1.2386260926723480e-01 -9.2815196514129639e-01</leafValues></_>
    <_>
      <internalNodes>
        0 -1 355265 -2.2854318376630545e-03</internalNodes>
      <leafValues>
        5.5539977550506592e-01 -2.6961308717727661e-01</leafValues></_>
    <_>
      <internalNodes>
        0 -1 333701 -2.0346760749816895e-02</internalNodes>
      <leafValues>
        -9.4364428520202637e-01 1.6952954232692719e-01</leafValues></_>
    <_>
      <internalNodes>
        0 -1 230929 -1.9864793866872787e-03</internalNodes>
      <leafValues>
        7.3797416687011719e-01 -2.3559235036373138e-01</leafValues></_>
    <_>
      <internalNodes>
        0 -1 341460 9.7138667479157448e-03</internalNodes>
      <leafValues>
        2.0140874385833740e-01 -9.7431266307830811e-01</leafValues></_>
    <_>
      <internalNodes>
        0 -1 229672 4.9743126146495342e-03</internalNodes>
      <leafValues>
        -2.8093498945236206e-01 6.0420346260070801e-01</leafValues></_>
    <_>
      <internalNodes>
        0 -1 359764 -1.8878825940191746e-03</internalNodes>
      <leafValues>
        -8.2011216878890991e-01 1.7652142047882080e-01</leafValues></_>
    <_>
      <internalNodes>
        0 -1 49639 -2.9245629906654358e-02</internalNodes>
      <leafValues>
        4.2524024844169617e-01 -3.2573673129081726e-01</leafValues></_>
    <_>
      <internalNodes>
        0 -1 374898 6.5681147389113903e-03</internalNodes>
      <leafValues>
        -2.0666339993476868e-01 6.1977106332778931e-01</leafValues></_></weakClassifiers></stage6>
</opencv_storage>
