<?xml version="1.0"?>
<opencv_storage>
<stage2>
  <maxWeakCount>7</maxWeakCount>
  <stageThreshold>-1.2512253522872925e+00</stageThreshold>
  <weakClassifiers>
    <_>
      <internalNodes>
        0 -1 149796 -1.6323465108871460e-01</internalNodes>
      <leafValues>
        -7.6007497310638428e-01 4.7639486193656921e-01</leafValues></_>
    <_>
      <internalNodes>
        0 -1 509665 -8.4070768207311630e-03</internalNodes>
      <leafValues>
        6.7607682943344116e-01 -4.9102956056594849e-01</leafValues></_>
    <_>
      <internalNodes>
        0 -1 157 -1.3395652174949646e-02</internalNodes>
      <leafValues>
        6.4885461330413818e-01 -3.5256952047348022e-01</leafValues></_>
    <_>
      <internalNodes>
        0 -1 395288 -8.2387533038854599e-03</internalNodes>
      <leafValues>
        5.4235023260116577e-01 -4.2639490962028503e-01</leafValues></_>
    <_>
      <internalNodes>
        0 -1 63950 -8.1810578703880310e-02</internalNodes>
      <leafValues>
        -5.6502586603164673e-01 5.3515464067459106e-01</leafValues></_>
    <_>
      <internalNodes>
        0 -1 290601 -6.8102781660854816e-03</internalNodes>
      <leafValues>
        6.1827409267425537e-01 -3.7444952130317688e-01</leafValues></_>
    <_>
      <internalNodes>
        0 -1 93530 4.5500528067350388e-03</internalNodes>
      <leafValues>
        -2.4314978718757629e-01 8.4014099836349487e-01</leafValues></_></weakClassifiers></stage2>
</opencv_storage>
