<?xml version="1.0"?>
<opencv_storage>
<stage6>
  <maxWeakCount>9</maxWeakCount>
  <stageThreshold>-1.3676866292953491e+00</stageThreshold>
  <weakClassifiers>
    <_>
      <internalNodes>
        0 -1 509550 -1.0455653071403503e-02</internalNodes>
      <leafValues>
        2.4904213845729828e-01 -7.3628491163253784e-01</leafValues></_>
    <_>
      <internalNodes>
        0 -1 491753 7.3447455652058125e-03</internalNodes>
      <leafValues>
        -3.7574511766433716e-01 7.1653503179550171e-01</leafValues></_>
    <_>
      <internalNodes>
        0 -1 96436 1.0657871142029762e-02</internalNodes>
      <leafValues>
        -4.4208660721778870e-01 5.0778222084045410e-01</leafValues></_>
    <_>
      <internalNodes>
        0 -1 388369 -4.1779883205890656e-02</internalNodes>
      <leafValues>
        3.2399591803550720e-01 -5.6304723024368286e-01</leafValues></_>
    <_>
      <internalNodes>
        0 -1 439907 1.4266466314438730e-04</internalNodes>
      <leafValues>
        2.0674514770507813e-01 -8.4235304594039917e-01</leafValues></_>
    <_>
      <internalNodes>
        0 -1 439907 -3.2225932227447629e-04</internalNodes>
      <leafValues>
        -8.6556398868560791e-01 2.1268650889396667e-01</leafValues></_>
    <_>
      <internalNodes>
        0 -1 487712 1.0782109893625602e-04</internalNodes>
      <leafValues>
        1.7684134840965271e-01 -7.3381286859512329e-01</leafValues></_>
    <_>
      <internalNodes>
        0 -1 364305 1.3063553720712662e-02</internalNodes>
      <leafValues>
        1.6473744809627533e-01 -9.8014003038406372e-01</leafValues></_>
    <_>
      <internalNodes>
        0 -1 298223 -9.6683846786618233e-03</internalNodes>
      <leafValues>
        -9.2285633087158203e-01 1.4045949280261993e-01</leafValues></_></weakClassifiers></stage6>
</opencv_storage>
