<?xml version="1.0"?>
<opencv_storage>
<cascade>
  <stageType>BOOST</stageType>
  <featureType>HAAR</featureType>
  <height>16</height>
  <width>64</width>
  <stageParams>
    <boostType>GAB</boostType>
    <minHitRate>9.9500000476837158e-01</minHitRate>
    <maxFalseAlarm>3.0000001192092896e-01</maxFalseAlarm>
    <weightTrimRate>9.4999999999999996e-01</weightTrimRate>
    <maxDepth>1</maxDepth>
    <maxWeakCount>100</maxWeakCount></stageParams>
  <featureParams>
    <maxCatCount>0</maxCatCount>
    <featSize>1</featSize>
    <mode>BASIC</mode></featureParams>
  <stageNum>12</stageNum>
  <stages>
    <!-- stage 0 -->
    <_>
      <maxWeakCount>7</maxWeakCount>
      <stageThreshold>-1.1775110960006714e+00</stageThreshold>
      <weakClassifiers>
        <_>
          <internalNodes>
            0 -1 19 7.8413069248199463e-02</internalNodes>
          <leafValues>
            -7.8937894105911255e-01 9.3650794029235840e-01</leafValues></_>
        <_>
          <internalNodes>
            0 -1 13 1.6812300309538841e-03</internalNodes>
          <leafValues>
            -6.7000168561935425e-01 6.9867175817489624e-01</leafValues></_>
        <_>
          <internalNodes>
            0 -1 65 1.6446034424006939e-03</internalNodes>
          <leafValues>
            -5.9061896800994873e-01 6.2330722808837891e-01</leafValues></_>
        <_>
          <internalNodes>
            0 -1 83 4.1422480717301369e-03</internalNodes>
          <leafValues>
            -3.8795122504234314e-01 9.0217322111129761e-01</leafValues></_>
        <_>
          <internalNodes>
            0 -1 67 4.1762692853808403e-03</internalNodes>
          <leafValues>
            -2.3874518275260925e-01 9.2665302753448486e-01</leafValues></_>
        <_>
          <internalNodes>
            0 -1 35 -7.9388543963432312e-04</internalNodes>
          <leafValues>
            6.8121814727783203e-01 -3.4553256630897522e-01</leafValues></_>
        <_>
          <internalNodes>
            0 -1 49 -1.3846101239323616e-02</internalNodes>
          <leafValues>
            8.6023509502410889e-01 -3.4743142127990723e-01</leafValues></_></weakClassifiers></_>
    <!-- stage 1 -->
    <_>
      <maxWeakCount>2</maxWeakCount>
      <stageThreshold>-8.0457806587219238e-01</stageThreshold>
      <weakClassifiers>
        <_>
          <internalNodes>
            0 -1 12 -3.7510789930820465e-02</internalNodes>
          <leafValues>
            -9.0823775529861450e-01 5.0146627426147461e-01</leafValues></_>
        <_>
          <internalNodes>
            0 -1 44 -6.7475885152816772e-02</internalNodes>
          <leafValues>
            -9.8342615365982056e-01 1.0365970432758331e-01</leafValues></_></weakClassifiers></_>
    <!-- stage 2 -->
    <_>
      <maxWeakCount>7</maxWeakCount>
      <stageThreshold>-1.2512253522872925e+00</stageThreshold>
      <weakClassifiers>
        <_>
          <internalNodes>
            0 -1 26 -1.6323465108871460e-01</internalNodes>
          <leafValues>
            -7.6007497310638428e-01 4.7639486193656921e-01</leafValues></_>
        <_>
          <internalNodes>
            0 -1 91 -8.4070768207311630e-03</internalNodes>
          <leafValues>
            6.7607682943344116e-01 -4.9102956056594849e-01</leafValues></_>
        <_>
          <internalNodes>
            0 -1 0 -1.3395652174949646e-02</internalNodes>
          <leafValues>
            6.4885461330413818e-01 -3.5256952047348022e-01</leafValues></_>
        <_>
          <internalNodes>
            0 -1 60 -8.2387533038854599e-03</internalNodes>
          <leafValues>
            5.4235023260116577e-01 -4.2639490962028503e-01</leafValues></_>
        <_>
          <internalNodes>
            0 -1 10 -8.1810578703880310e-02</internalNodes>
          <leafValues>
            -5.6502586603164673e-01 5.3515464067459106e-01</leafValues></_>
        <_>
          <internalNodes>
            0 -1 47 -6.8102781660854816e-03</internalNodes>
          <leafValues>
            6.1827409267425537e-01 -3.7444952130317688e-01</leafValues></_>
        <_>
          <internalNodes>
            0 -1 14 4.5500528067350388e-03</internalNodes>
          <leafValues>
            -2.4314978718757629e-01 8.4014099836349487e-01</leafValues></_></weakClassifiers></_>
    <!-- stage 3 -->
    <_>
      <maxWeakCount>6</maxWeakCount>
      <stageThreshold>-1.8224868774414063e+00</stageThreshold>
      <weakClassifiers>
        <_>
          <internalNodes>
            0 -1 1 -3.1658074259757996e-01</internalNodes>
          <leafValues>
            -8.4848487377166748e-01 4.5161288976669312e-01</leafValues></_>
        <_>
          <internalNodes>
            0 -1 43 1.5236452221870422e-02</internalNodes>
          <leafValues>
            -4.7065323591232300e-01 8.1321758031845093e-01</leafValues></_>
        <_>
          <internalNodes>
            0 -1 86 9.4278324395418167e-03</internalNodes>
          <leafValues>
            -2.7786391973495483e-01 8.8014549016952515e-01</leafValues></_>
        <_>
          <internalNodes>
            0 -1 36 1.6213582828640938e-02</internalNodes>
          <leafValues>
            -2.6344847679138184e-01 8.6341279745101929e-01</leafValues></_>
        <_>
          <internalNodes>
            0 -1 22 -8.4545999765396118e-02</internalNodes>
          <leafValues>
            -6.5219587087631226e-01 4.0942522883415222e-01</leafValues></_>
        <_>
          <internalNodes>
            0 -1 16 1.9188787555322051e-03</internalNodes>
          <leafValues>
            -4.3670174479484558e-01 4.8729118704795837e-01</leafValues></_></weakClassifiers></_>
    <!-- stage 4 -->
    <_>
      <maxWeakCount>7</maxWeakCount>
      <stageThreshold>-1.4974656105041504e+00</stageThreshold>
      <weakClassifiers>
        <_>
          <internalNodes>
            0 -1 58 -3.6950430274009705e-01</internalNodes>
          <leafValues>
            -7.7972710132598877e-01 3.6496350169181824e-01</leafValues></_>
        <_>
          <internalNodes>
            0 -1 5 1.5309662558138371e-02</internalNodes>
          <leafValues>
            -7.5708115100860596e-01 1.4884005486965179e-01</leafValues></_>
        <_>
          <internalNodes>
            0 -1 31 2.0681531168520451e-04</internalNodes>
          <leafValues>
            1.9068174064159393e-01 -8.8336449861526489e-01</leafValues></_>
        <_>
          <internalNodes>
            0 -1 30 -4.7355791321024299e-04</internalNodes>
          <leafValues>
            -9.3214356899261475e-01 2.1642954647541046e-01</leafValues></_>
        <_>
          <internalNodes>
            0 -1 38 -3.2942473888397217e-02</internalNodes>
          <leafValues>
            6.6805332899093628e-01 -3.1781524419784546e-01</leafValues></_>
        <_>
          <internalNodes>
            0 -1 84 -1.0661785199772567e-04</internalNodes>
          <leafValues>
            -8.2060855627059937e-01 2.6590514183044434e-01</leafValues></_>
        <_>
          <internalNodes>
            0 -1 2 -1.6519028693437576e-02</internalNodes>
          <leafValues>
            6.3890033960342407e-01 -3.1585860252380371e-01</leafValues></_></weakClassifiers></_>
    <!-- stage 5 -->
    <_>
      <maxWeakCount>8</maxWeakCount>
      <stageThreshold>-1.3605386018753052e+00</stageThreshold>
      <weakClassifiers>
        <_>
          <internalNodes>
            0 -1 8 3.0605219304561615e-02</internalNodes>
          <leafValues>
            -7.6380950212478638e-01 4.0799999237060547e-01</leafValues></_>
        <_>
          <internalNodes>
            0 -1 33 1.1926648020744324e-01</internalNodes>
          <leafValues>
            -5.7250702381134033e-01 6.1006522178649902e-01</leafValues></_>
        <_>
          <internalNodes>
            0 -1 92 -1.2300537899136543e-02</internalNodes>
          <leafValues>
            7.2802585363388062e-01 -3.0719232559204102e-01</leafValues></_>
        <_>
          <internalNodes>
            0 -1 29 1.6507704276591539e-04</internalNodes>
          <leafValues>
            2.6008120179176331e-01 -8.6504048109054565e-01</leafValues></_>
        <_>
          <internalNodes>
            0 -1 61 -7.0900162681937218e-03</internalNodes>
          <leafValues>
            4.9479180574417114e-01 -3.9770418405532837e-01</leafValues></_>
        <_>
          <internalNodes>
            0 -1 63 -2.0262591715436429e-04</internalNodes>
          <leafValues>
            -8.5891872644424438e-01 2.2813087701797485e-01</leafValues></_>
        <_>
          <internalNodes>
            0 -1 64 3.2193504739552736e-04</internalNodes>
          <leafValues>
            2.0732913911342621e-01 -8.5377597808837891e-01</leafValues></_>
        <_>
          <internalNodes>
            0 -1 88 -3.2179249683395028e-04</internalNodes>
          <leafValues>
            -9.9000597000122070e-01 1.5374229848384857e-01</leafValues></_></weakClassifiers></_>
    <!-- stage 6 -->
    <_>
      <maxWeakCount>9</maxWeakCount>
      <stageThreshold>-1.3676866292953491e+00</stageThreshold>
      <weakClassifiers>
        <_>
          <internalNodes>
            0 -1 90 -1.0455653071403503e-02</internalNodes>
          <leafValues>
            2.4904213845729828e-01 -7.3628491163253784e-01</leafValues></_>
        <_>
          <internalNodes>
            0 -1 87 7.3447455652058125e-03</internalNodes>
          <leafValues>
            -3.7574511766433716e-01 7.1653503179550171e-01</leafValues></_>
        <_>
          <internalNodes>
            0 -1 15 1.0657871142029762e-02</internalNodes>
          <leafValues>
            -4.4208660721778870e-01 5.0778222084045410e-01</leafValues></_>
        <_>
          <internalNodes>
            0 -1 59 -4.1779883205890656e-02</internalNodes>
          <leafValues>
            3.2399591803550720e-01 -5.6304723024368286e-01</leafValues></_>
        <_>
          <internalNodes>
            0 -1 70 1.4266466314438730e-04</internalNodes>
          <leafValues>
            2.0674514770507813e-01 -8.4235304594039917e-01</leafValues></_>
        <_>
          <internalNodes>
            0 -1 70 -3.2225932227447629e-04</internalNodes>
          <leafValues>
            -8.6556398868560791e-01 2.1268650889396667e-01</leafValues></_>
        <_>
          <internalNodes>
            0 -1 84 1.0782109893625602e-04</internalNodes>
          <leafValues>
            1.7684134840965271e-01 -7.3381286859512329e-01</leafValues></_>
        <_>
          <internalNodes>
            0 -1 52 1.3063553720712662e-02</internalNodes>
          <leafValues>
            1.6473744809627533e-01 -9.8014003038406372e-01</leafValues></_>
        <_>
          <internalNodes>
            0 -1 48 -9.6683846786618233e-03</internalNodes>
          <leafValues>
            -9.2285633087158203e-01 1.4045949280261993e-01</leafValues></_></weakClassifiers></_>
    <!-- stage 7 -->
    <_>
      <maxWeakCount>9</maxWeakCount>
      <stageThreshold>-1.1979643106460571e+00</stageThreshold>
      <weakClassifiers>
        <_>
          <internalNodes>
            0 -1 32 -4.4255830347537994e-02</internalNodes>
          <leafValues>
            1.5789473056793213e-01 -7.3399013280868530e-01</leafValues></_>
        <_>
          <internalNodes>
            0 -1 76 2.5827072095125914e-03</internalNodes>
          <leafValues>
            -3.5488361120223999e-01 5.0597184896469116e-01</leafValues></_>
        <_>
          <internalNodes>
            0 -1 20 -3.7780437618494034e-02</internalNodes>
          <leafValues>
            -8.5448318719863892e-01 1.6964702308177948e-01</leafValues></_>
        <_>
          <internalNodes>
            0 -1 23 6.6463840194046497e-03</internalNodes>
          <leafValues>
            3.1718859076499939e-01 -5.8252674341201782e-01</leafValues></_>
        <_>
          <internalNodes>
            0 -1 78 -1.6248221509158611e-03</internalNodes>
          <leafValues>
            -8.9712220430374146e-01 9.5474027097225189e-02</leafValues></_>
        <_>
          <internalNodes>
            0 -1 50 -2.0970642566680908e-02</internalNodes>
          <leafValues>
            -9.9360275268554688e-01 1.2291957437992096e-01</leafValues></_>
        <_>
          <internalNodes>
            0 -1 57 -5.2850013598799706e-03</internalNodes>
          <leafValues>
            3.3635780215263367e-01 -5.2384686470031738e-01</leafValues></_>
        <_>
          <internalNodes>
            0 -1 75 -3.8059608777984977e-04</internalNodes>
          <leafValues>
            6.1431747674942017e-01 -3.0093860626220703e-01</leafValues></_>
        <_>
          <internalNodes>
            0 -1 55 2.4844850413501263e-03</internalNodes>
          <leafValues>
            1.7374047636985779e-01 -1.</leafValues></_></weakClassifiers></_>
    <!-- stage 8 -->
    <_>
      <maxWeakCount>11</maxWeakCount>
      <stageThreshold>-1.4441998004913330e+00</stageThreshold>
      <weakClassifiers>
        <_>
          <internalNodes>
            0 -1 93 -4.8294817097485065e-03</internalNodes>
          <leafValues>
            4.4444444775581360e-01 -6.6089963912963867e-01</leafValues></_>
        <_>
          <internalNodes>
            0 -1 28 -1.0683623142540455e-02</internalNodes>
          <leafValues>
            5.3228294849395752e-01 -3.5034078359603882e-01</leafValues></_>
        <_>
          <internalNodes>
            0 -1 62 4.5465409755706787e-02</internalNodes>
          <leafValues>
            1.5082649886608124e-01 -9.5645833015441895e-01</leafValues></_>
        <_>
          <internalNodes>
            0 -1 66 -2.7397423982620239e-02</internalNodes>
          <leafValues>
            -9.8687291145324707e-01 1.5999144315719604e-01</leafValues></_>
        <_>
          <internalNodes>
            0 -1 74 -1.4422610402107239e-03</internalNodes>
          <leafValues>
            5.7711297273635864e-01 -3.1971070170402527e-01</leafValues></_>
        <_>
          <internalNodes>
            0 -1 85 4.6674418263137341e-03</internalNodes>
          <leafValues>
            -2.4800558388233185e-01 6.6681891679763794e-01</leafValues></_>
        <_>
          <internalNodes>
            0 -1 89 -1.3811694458127022e-02</internalNodes>
          <leafValues>
            8.0177634954452515e-01 -1.8029962480068207e-01</leafValues></_>
        <_>
          <internalNodes>
            0 -1 53 -1.3416411820799112e-03</internalNodes>
          <leafValues>
            3.2805481553077698e-01 -5.1112729310989380e-01</leafValues></_>
        <_>
          <internalNodes>
            0 -1 25 -8.4205567836761475e-03</internalNodes>
          <leafValues>
            6.8161392211914063e-01 -2.2564770281314850e-01</leafValues></_>
        <_>
          <internalNodes>
            0 -1 37 1.9477913156151772e-04</internalNodes>
          <leafValues>
            2.1692690253257751e-01 -8.2061135768890381e-01</leafValues></_>
        <_>
          <internalNodes>
            0 -1 79 -9.5622887602075934e-04</internalNodes>
          <leafValues>
            4.4064241647720337e-01 -3.5853707790374756e-01</leafValues></_></weakClassifiers></_>
    <!-- stage 9 -->
    <_>
      <maxWeakCount>10</maxWeakCount>
      <stageThreshold>-1.2458852529525757e+00</stageThreshold>
      <weakClassifiers>
        <_>
          <internalNodes>
            0 -1 21 1.8308261036872864e-01</internalNodes>
          <leafValues>
            -7.4827927350997925e-01 2.1554769575595856e-01</leafValues></_>
        <_>
          <internalNodes>
            0 -1 37 -1.7857736384030432e-04</internalNodes>
          <leafValues>
            -8.3740234375000000e-01 6.8315424025058746e-02</leafValues></_>
        <_>
          <internalNodes>
            0 -1 9 4.4295946136116982e-03</internalNodes>
          <leafValues>
            -4.3149730563163757e-01 3.6076018214225769e-01</leafValues></_>
        <_>
          <internalNodes>
            0 -1 54 -8.2820543320849538e-04</internalNodes>
          <leafValues>
            -8.9539432525634766e-01 2.0259670913219452e-01</leafValues></_>
        <_>
          <internalNodes>
            0 -1 34 4.4187929597683251e-04</internalNodes>
          <leafValues>
            -3.6602863669395447e-01 3.8372370600700378e-01</leafValues></_>
        <_>
          <internalNodes>
            0 -1 17 3.1455708667635918e-03</internalNodes>
          <leafValues>
            -2.1840730309486389e-01 6.2164777517318726e-01</leafValues></_>
        <_>
          <internalNodes>
            0 -1 7 4.2909923940896988e-03</internalNodes>
          <leafValues>
            -6.2680149078369141e-01 2.8993615508079529e-01</leafValues></_>
        <_>
          <internalNodes>
            0 -1 41 1.2377067469060421e-03</internalNodes>
          <leafValues>
            1.4263580739498138e-01 -9.0322065353393555e-01</leafValues></_>
        <_>
          <internalNodes>
            0 -1 77 1.1210532858967781e-02</internalNodes>
          <leafValues>
            -2.0485682785511017e-01 8.5452628135681152e-01</leafValues></_>
        <_>
          <internalNodes>
            0 -1 24 -1.6492549329996109e-02</internalNodes>
          <leafValues>
            1.8668527901172638e-01 -9.0765744447708130e-01</leafValues></_></weakClassifiers></_>
    <!-- stage 10 -->
    <_>
      <maxWeakCount>10</maxWeakCount>
      <stageThreshold>-1.1487193107604980e+00</stageThreshold>
      <weakClassifiers>
        <_>
          <internalNodes>
            0 -1 27 -6.0361204668879509e-03</internalNodes>
          <leafValues>
            2.8994083404541016e-01 -6.6224581003189087e-01</leafValues></_>
        <_>
          <internalNodes>
            0 -1 4 1.7768066376447678e-02</internalNodes>
          <leafValues>
            -7.1036022901535034e-01 1.5321141481399536e-01</leafValues></_>
        <_>
          <internalNodes>
            0 -1 40 -1.1548612965270877e-03</internalNodes>
          <leafValues>
            -8.9022642374038696e-01 9.3144081532955170e-02</leafValues></_>
        <_>
          <internalNodes>
            0 -1 81 6.7861762363463640e-04</internalNodes>
          <leafValues>
            -2.2325636446475983e-01 5.5011552572250366e-01</leafValues></_>
        <_>
          <internalNodes>
            0 -1 46 2.8353808447718620e-03</internalNodes>
          <leafValues>
            -2.3647940158843994e-01 5.1565003395080566e-01</leafValues></_>
        <_>
          <internalNodes>
            0 -1 45 -3.9201695472002029e-03</internalNodes>
          <leafValues>
            7.0883178710937500e-01 -1.8274447321891785e-01</leafValues></_>
        <_>
          <internalNodes>
            0 -1 82 -7.5926370918750763e-03</internalNodes>
          <leafValues>
            -8.2695466279983521e-01 1.6595557332038879e-01</leafValues></_>
        <_>
          <internalNodes>
            0 -1 90 -5.9802103787660599e-03</internalNodes>
          <leafValues>
            4.2375281453132629e-01 -3.6124444007873535e-01</leafValues></_>
        <_>
          <internalNodes>
            0 -1 39 -6.9509097374975681e-04</internalNodes>
          <leafValues>
            -8.4385782480239868e-01 1.3528217375278473e-01</leafValues></_>
        <_>
          <internalNodes>
            0 -1 42 5.6013255380094051e-04</internalNodes>
          <leafValues>
            1.3124288618564606e-01 -9.2191827297210693e-01</leafValues></_></weakClassifiers></_>
    <!-- stage 11 -->
    <_>
      <maxWeakCount>13</maxWeakCount>
      <stageThreshold>-1.1157118082046509e+00</stageThreshold>
      <weakClassifiers>
        <_>
          <internalNodes>
            0 -1 80 7.0584163768216968e-04</internalNodes>
          <leafValues>
            -6.4808362722396851e-01 2.8947368264198303e-01</leafValues></_>
        <_>
          <internalNodes>
            0 -1 11 2.7938280254602432e-03</internalNodes>
          <leafValues>
            -4.1421335935592651e-01 3.0657085776329041e-01</leafValues></_>
        <_>
          <internalNodes>
            0 -1 69 -1.5839675907045603e-03</internalNodes>
          <leafValues>
            5.0545859336853027e-01 -2.4715860188007355e-01</leafValues></_>
        <_>
          <internalNodes>
            0 -1 56 -1.7945340368896723e-03</internalNodes>
          <leafValues>
            2.8252136707305908e-01 -4.3784332275390625e-01</leafValues></_>
        <_>
          <internalNodes>
            0 -1 18 4.2427454143762589e-02</internalNodes>
          <leafValues>
            1.3794481754302979e-01 -9.4358348846435547e-01</leafValues></_>
        <_>
          <internalNodes>
            0 -1 73 2.0495170610956848e-04</internalNodes>
          <leafValues>
            1.3851121068000793e-01 -7.8470736742019653e-01</leafValues></_>
        <_>
          <internalNodes>
            0 -1 72 -2.9782212805002928e-03</internalNodes>
          <leafValues>
            7.6003462076187134e-01 -1.6485679149627686e-01</leafValues></_>
        <_>
          <internalNodes>
            0 -1 71 -2.3287430405616760e-02</internalNodes>
          <leafValues>
            -8.0847984552383423e-01 1.6502629220485687e-01</leafValues></_>
        <_>
          <internalNodes>
            0 -1 3 -1.2884367024526000e-03</internalNodes>
          <leafValues>
            4.2382571101188660e-01 -2.8472691774368286e-01</leafValues></_>
        <_>
          <internalNodes>
            0 -1 68 2.9859659262001514e-03</internalNodes>
          <leafValues>
            -5.6222099065780640e-01 2.6391971111297607e-01</leafValues></_>
        <_>
          <internalNodes>
            0 -1 51 2.4479068815708160e-03</internalNodes>
          <leafValues>
            -2.1055105328559875e-01 7.0631355047225952e-01</leafValues></_>
        <_>
          <internalNodes>
            0 -1 94 -1.7883304972201586e-03</internalNodes>
          <leafValues>
            -7.9900032281875610e-01 1.7283433675765991e-01</leafValues></_>
        <_>
          <internalNodes>
            0 -1 6 5.0178682431578636e-03</internalNodes>
          <leafValues>
            -2.4645239114761353e-01 5.1994448900222778e-01</leafValues></_></weakClassifiers></_></stages>
  <features>
    <_>
      <rects>
        <_>
          0 0 6 16 -1.</_>
        <_>
          3 0 3 16 2.</_></rects>
      <tilted>0</tilted></_>
    <_>
      <rects>
        <_>
          0 0 24 14 -1.</_>
        <_>
          8 0 8 14 2.</_></rects>
      <tilted>0</tilted></_>
    <_>
      <rects>
        <_>
          0 0 59 2 -1.</_>
        <_>
          0 1 59 1 2.</_></rects>
      <tilted>0</tilted></_>
    <_>
      <rects>
        <_>
          0 14 12 2 -1.</_>
        <_>
          0 14 6 1 2.</_>
        <_>
          6 15 6 1 2.</_></rects>
      <tilted>0</tilted></_>
    <_>
      <rects>
        <_>
          1 1 34 13 -1.</_>
        <_>
          18 1 17 13 2.</_></rects>
      <tilted>0</tilted></_>
    <_>
      <rects>
        <_>
          1 2 32 11 -1.</_>
        <_>
          17 2 16 11 2.</_></rects>
      <tilted>0</tilted></_>
    <_>
      <rects>
        <_>
          1 4 4 9 -1.</_>
        <_>
          3 4 2 9 2.</_></rects>
      <tilted>0</tilted></_>
    <_>
      <rects>
        <_>
          2 1 44 12 -1.</_>
        <_>
          24 1 22 12 2.</_></rects>
      <tilted>0</tilted></_>
    <_>
      <rects>
        <_>
          3 5 10 8 -1.</_>
        <_>
          8 5 5 8 2.</_></rects>
      <tilted>0</tilted></_>
    <_>
      <rects>
        <_>
          3 8 8 2 -1.</_>
        <_>
          7 8 4 2 2.</_></rects>
      <tilted>0</tilted></_>
    <_>
      <rects>
        <_>
          4 1 12 7 -1.</_>
        <_>
          8 1 4 7 2.</_></rects>
      <tilted>0</tilted></_>
    <_>
      <rects>
        <_>
          5 0 6 6 -1.</_>
        <_>
          5 0 3 3 2.</_>
        <_>
          8 3 3 3 2.</_></rects>
      <tilted>0</tilted></_>
    <_>
      <rects>
        <_>
          5 1 9 4 -1.</_>
        <_>
          8 1 3 4 2.</_></rects>
      <tilted>0</tilted></_>
    <_>
      <rects>
        <_>
          5 7 6 1 -1.</_>
        <_>
          8 7 3 1 2.</_></rects>
      <tilted>0</tilted></_>
    <_>
      <rects>
        <_>
          6 1 8 2 -1.</_>
        <_>
          6 2 8 1 2.</_></rects>
      <tilted>0</tilted></_>
    <_>
      <rects>
        <_>
          6 3 6 10 -1.</_>
        <_>
          9 3 3 10 2.</_></rects>
      <tilted>0</tilted></_>
    <_>
      <rects>
        <_>
          6 7 6 1 -1.</_>
        <_>
          9 7 3 1 2.</_></rects>
      <tilted>0</tilted></_>
    <_>
      <rects>
        <_>
          7 1 5 2 -1.</_>
        <_>
          7 2 5 1 2.</_></rects>
      <tilted>0</tilted></_>
    <_>
      <rects>
        <_>
          7 1 26 6 -1.</_>
        <_>
          20 1 13 6 2.</_></rects>
      <tilted>0</tilted></_>
    <_>
      <rects>
        <_>
          7 1 39 6 -1.</_>
        <_>
          7 4 39 3 2.</_></rects>
      <tilted>0</tilted></_>
    <_>
      <rects>
        <_>
          7 7 50 3 -1.</_>
        <_>
          32 7 25 3 2.</_></rects>
      <tilted>0</tilted></_>
    <_>
      <rects>
        <_>
          8 0 51 8 -1.</_>
        <_>
          8 4 51 4 2.</_></rects>
      <tilted>0</tilted></_>
    <_>
      <rects>
        <_>
          8 1 4 15 -1.</_>
        <_>
          8 6 4 5 2.</_></rects>
      <tilted>0</tilted></_>
    <_>
      <rects>
        <_>
          8 4 56 9 -1.</_>
        <_>
          36 4 28 9 2.</_></rects>
      <tilted>0</tilted></_>
    <_>
      <rects>
        <_>
          8 7 9 3 -1.</_>
        <_>
          8 8 9 1 2.</_></rects>
      <tilted>0</tilted></_>
    <_>
      <rects>
        <_>
          9 1 40 2 -1.</_>
        <_>
          9 2 40 1 2.</_></rects>
      <tilted>0</tilted></_>
    <_>
      <rects>
        <_>
          10 1 16 15 -1.</_>
        <_>
          10 6 16 5 2.</_></rects>
      <tilted>0</tilted></_>
    <_>
      <rects>
        <_>
          10 5 4 4 -1.</_>
        <_>
          12 5 2 4 2.</_></rects>
      <tilted>0</tilted></_>
    <_>
      <rects>
        <_>
          10 12 15 2 -1.</_>
        <_>
          10 13 15 1 2.</_></rects>
      <tilted>0</tilted></_>
    <_>
      <rects>
        <_>
          11 0 2 1 -1.</_>
        <_>
          12 0 1 1 2.</_></rects>
      <tilted>0</tilted></_>
    <_>
      <rects>
        <_>
          11 0 2 3 -1.</_>
        <_>
          12 0 1 3 2.</_></rects>
      <tilted>0</tilted></_>
    <_>
      <rects>
        <_>
          11 1 2 2 -1.</_>
        <_>
          12 1 1 2 2.</_></rects>
      <tilted>0</tilted></_>
    <_>
      <rects>
        <_>
          11 11 26 4 -1.</_>
        <_>
          11 13 26 2 2.</_></rects>
      <tilted>0</tilted></_>
    <_>
      <rects>
        <_>
          13 0 28 12 -1.</_>
        <_>
          13 6 28 6 2.</_></rects>
      <tilted>0</tilted></_>
    <_>
      <rects>
        <_>
          13 7 6 1 -1.</_>
        <_>
          16 7 3 1 2.</_></rects>
      <tilted>0</tilted></_>
    <_>
      <rects>
        <_>
          13 12 2 4 -1.</_>
        <_>
          13 14 2 2 2.</_></rects>
      <tilted>0</tilted></_>
    <_>
      <rects>
        <_>
          14 14 40 2 -1.</_>
        <_>
          14 15 40 1 2.</_></rects>
      <tilted>0</tilted></_>
    <_>
      <rects>
        <_>
          16 0 2 2 -1.</_>
        <_>
          17 0 1 2 2.</_></rects>
      <tilted>0</tilted></_>
    <_>
      <rects>
        <_>
          16 12 47 4 -1.</_>
        <_>
          16 14 47 2 2.</_></rects>
      <tilted>0</tilted></_>
    <_>
      <rects>
        <_>
          17 14 4 2 -1.</_>
        <_>
          19 14 2 2 2.</_></rects>
      <tilted>0</tilted></_>
    <_>
      <rects>
        <_>
          18 0 4 3 -1.</_>
        <_>
          20 0 2 3 2.</_></rects>
      <tilted>0</tilted></_>
    <_>
      <rects>
        <_>
          18 0 4 4 -1.</_>
        <_>
          20 0 2 4 2.</_></rects>
      <tilted>0</tilted></_>
    <_>
      <rects>
        <_>
          18 13 2 3 -1.</_>
        <_>
          19 13 1 3 2.</_></rects>
      <tilted>0</tilted></_>
    <_>
      <rects>
        <_>
          20 3 29 2 -1.</_>
        <_>
          20 4 29 1 2.</_></rects>
      <tilted>0</tilted></_>
    <_>
      <rects>
        <_>
          20 7 27 1 -1.</_>
        <_>
          29 7 9 1 2.</_></rects>
      <tilted>0</tilted></_>
    <_>
      <rects>
        <_>
          21 6 4 3 -1.</_>
        <_>
          23 6 2 3 2.</_></rects>
      <tilted>0</tilted></_>
    <_>
      <rects>
        <_>
          21 6 4 4 -1.</_>
        <_>
          23 6 2 4 2.</_></rects>
      <tilted>0</tilted></_>
    <_>
      <rects>
        <_>
          21 11 21 2 -1.</_>
        <_>
          21 12 21 1 2.</_></rects>
      <tilted>0</tilted></_>
    <_>
      <rects>
        <_>
          22 6 17 4 -1.</_>
        <_>
          22 8 17 2 2.</_></rects>
      <tilted>0</tilted></_>
    <_>
      <rects>
        <_>
          23 10 12 4 -1.</_>
        <_>
          23 12 12 2 2.</_></rects>
      <tilted>0</tilted></_>
    <_>
      <rects>
        <_>
          27 0 20 5 -1.</_>
        <_>
          37 0 10 5 2.</_></rects>
      <tilted>0</tilted></_>
    <_>
      <rects>
        <_>
          28 13 8 2 -1.</_>
        <_>
          28 14 8 1 2.</_></rects>
      <tilted>0</tilted></_>
    <_>
      <rects>
        <_>
          29 6 9 4 -1.</_>
        <_>
          29 8 9 2 2.</_></rects>
      <tilted>0</tilted></_>
    <_>
      <rects>
        <_>
          30 0 14 9 -1.</_>
        <_>
          37 0 7 9 2.</_></rects>
      <tilted>0</tilted></_>
    <_>
      <rects>
        <_>
          30 14 4 2 -1.</_>
        <_>
          32 14 2 2 2.</_></rects>
      <tilted>0</tilted></_>
    <_>
      <rects>
        <_>
          30 14 6 2 -1.</_>
        <_>
          33 14 3 2 2.</_></rects>
      <tilted>0</tilted></_>
    <_>
      <rects>
        <_>
          31 9 10 3 -1.</_>
        <_>
          36 9 5 3 2.</_></rects>
      <tilted>0</tilted></_>
    <_>
      <rects>
        <_>
          32 0 12 11 -1.</_>
        <_>
          38 0 6 11 2.</_></rects>
      <tilted>0</tilted></_>
    <_>
      <rects>
        <_>
          32 0 32 15 -1.</_>
        <_>
          32 5 32 5 2.</_></rects>
      <tilted>0</tilted></_>
    <_>
      <rects>
        <_>
          32 5 8 6 -1.</_>
        <_>
          32 7 8 2 2.</_></rects>
      <tilted>0</tilted></_>
    <_>
      <rects>
        <_>
          33 4 8 6 -1.</_>
        <_>
          37 4 4 6 2.</_></rects>
      <tilted>0</tilted></_>
    <_>
      <rects>
        <_>
          33 6 8 5 -1.</_>
        <_>
          37 6 4 5 2.</_></rects>
      <tilted>0</tilted></_>
    <_>
      <rects>
        <_>
          34 1 30 5 -1.</_>
        <_>
          49 1 15 5 2.</_></rects>
      <tilted>0</tilted></_>
    <_>
      <rects>
        <_>
          35 0 2 2 -1.</_>
        <_>
          36 0 1 2 2.</_></rects>
      <tilted>0</tilted></_>
    <_>
      <rects>
        <_>
          35 0 2 3 -1.</_>
        <_>
          36 0 1 3 2.</_></rects>
      <tilted>0</tilted></_>
    <_>
      <rects>
        <_>
          35 0 1 10 -1.</_>
        <_>
          35 5 1 5 2.</_></rects>
      <tilted>0</tilted></_>
    <_>
      <rects>
        <_>
          35 2 20 6 -1.</_>
        <_>
          45 2 10 6 2.</_></rects>
      <tilted>0</tilted></_>
    <_>
      <rects>
        <_>
          35 14 9 2 -1.</_>
        <_>
          35 15 9 1 2.</_></rects>
      <tilted>0</tilted></_>
    <_>
      <rects>
        <_>
          37 1 5 12 -1.</_>
        <_>
          37 7 5 6 2.</_></rects>
      <tilted>0</tilted></_>
    <_>
      <rects>
        <_>
          39 8 4 2 -1.</_>
        <_>
          41 8 2 2 2.</_></rects>
      <tilted>0</tilted></_>
    <_>
      <rects>
        <_>
          39 14 2 2 -1.</_>
        <_>
          40 14 1 2 2.</_></rects>
      <tilted>0</tilted></_>
    <_>
      <rects>
        <_>
          40 2 14 12 -1.</_>
        <_>
          47 2 7 12 2.</_></rects>
      <tilted>0</tilted></_>
    <_>
      <rects>
        <_>
          40 3 7 2 -1.</_>
        <_>
          40 4 7 1 2.</_></rects>
      <tilted>0</tilted></_>
    <_>
      <rects>
        <_>
          41 1 2 2 -1.</_>
        <_>
          42 1 1 2 2.</_></rects>
      <tilted>0</tilted></_>
    <_>
      <rects>
        <_>
          42 6 4 2 -1.</_>
        <_>
          44 6 2 2 2.</_></rects>
      <tilted>0</tilted></_>
    <_>
      <rects>
        <_>
          43 9 2 1 -1.</_>
        <_>
          44 9 1 1 2.</_></rects>
      <tilted>0</tilted></_>
    <_>
      <rects>
        <_>
          43 11 8 2 -1.</_>
        <_>
          43 12 8 1 2.</_></rects>
      <tilted>0</tilted></_>
    <_>
      <rects>
        <_>
          44 14 13 2 -1.</_>
        <_>
          44 15 13 1 2.</_></rects>
      <tilted>0</tilted></_>
    <_>
      <rects>
        <_>
          46 0 6 3 -1.</_>
        <_>
          49 0 3 3 2.</_></rects>
      <tilted>0</tilted></_>
    <_>
      <rects>
        <_>
          46 3 2 10 -1.</_>
        <_>
          47 3 1 10 2.</_></rects>
      <tilted>0</tilted></_>
    <_>
      <rects>
        <_>
          47 7 2 1 -1.</_>
        <_>
          48 7 1 1 2.</_></rects>
      <tilted>0</tilted></_>
    <_>
      <rects>
        <_>
          47 10 2 2 -1.</_>
        <_>
          47 11 2 1 2.</_></rects>
      <tilted>0</tilted></_>
    <_>
      <rects>
        <_>
          48 14 16 2 -1.</_>
        <_>
          56 14 8 2 2.</_></rects>
      <tilted>0</tilted></_>
    <_>
      <rects>
        <_>
          49 1 11 2 -1.</_>
        <_>
          49 2 11 1 2.</_></rects>
      <tilted>0</tilted></_>
    <_>
      <rects>
        <_>
          50 0 2 1 -1.</_>
        <_>
          51 0 1 1 2.</_></rects>
      <tilted>0</tilted></_>
    <_>
      <rects>
        <_>
          50 1 5 2 -1.</_>
        <_>
          50 2 5 1 2.</_></rects>
      <tilted>0</tilted></_>
    <_>
      <rects>
        <_>
          50 1 11 2 -1.</_>
        <_>
          50 2 11 1 2.</_></rects>
      <tilted>0</tilted></_>
    <_>
      <rects>
        <_>
          51 1 7 2 -1.</_>
        <_>
          51 2 7 1 2.</_></rects>
      <tilted>0</tilted></_>
    <_>
      <rects>
        <_>
          52 0 2 2 -1.</_>
        <_>
          53 0 1 2 2.</_></rects>
      <tilted>0</tilted></_>
    <_>
      <rects>
        <_>
          58 5 4 7 -1.</_>
        <_>
          60 5 2 7 2.</_></rects>
      <tilted>0</tilted></_>
    <_>
      <rects>
        <_>
          59 1 4 10 -1.</_>
        <_>
          61 1 2 10 2.</_></rects>
      <tilted>0</tilted></_>
    <_>
      <rects>
        <_>
          59 2 4 10 -1.</_>
        <_>
          61 2 2 10 2.</_></rects>
      <tilted>0</tilted></_>
    <_>
      <rects>
        <_>
          59 2 4 12 -1.</_>
        <_>
          61 2 2 12 2.</_></rects>
      <tilted>0</tilted></_>
    <_>
      <rects>
        <_>
          61 3 2 7 -1.</_>
        <_>
          62 3 1 7 2.</_></rects>
      <tilted>0</tilted></_>
    <_>
      <rects>
        <_>
          63 8 1 6 -1.</_>
        <_>
          63 11 1 3 2.</_></rects>
      <tilted>0</tilted></_></features></cascade>
</opencv_storage>
