<?xml version="1.0"?>
<opencv_storage>
<stage1>
  <maxWeakCount>6</maxWeakCount>
  <stageThreshold>-1.2154828310012817e+00</stageThreshold>
  <weakClassifiers>
    <_>
      <internalNodes>
        0 -1 78794 -3.7510789930820465e-02</internalNodes>
      <leafValues>
        -9.0823775529861450e-01 5.0146627426147461e-01</leafValues></_>
    <_>
      <internalNodes>
        0 -1 277558 -6.7475885152816772e-02</internalNodes>
      <leafValues>
        -9.8342615365982056e-01 1.0365970432758331e-01</leafValues></_>
    <_>
      <internalNodes>
        0 -1 320593 -2.1033382043242455e-02</internalNodes>
      <leafValues>
        7.6469677686691284e-01 -5.0404047966003418e-01</leafValues></_>
    <_>
      <internalNodes>
        0 -1 395288 -8.8106263428926468e-03</internalNodes>
      <leafValues>
        5.6710642576217651e-01 -4.2803156375885010e-01</leafValues></_>
    <_>
      <internalNodes>
        0 -1 270911 -1.7598143219947815e-01</internalNodes>
      <leafValues>
        -9.5220601558685303e-01 2.8357228636741638e-01</leafValues></_>
    <_>
      <internalNodes>
        0 -1 57587 -7.3223106563091278e-02</internalNodes>
      <leafValues>
        -7.5754308700561523e-01 3.0034965276718140e-01</leafValues></_></weakClassifiers></stage1>
</opencv_storage>
