<?xml version="1.0"?>
<opencv_storage>
<stage8>
  <maxWeakCount>7</maxWeakCount>
  <stageThreshold>-1.6579273939132690e+00</stageThreshold>
  <weakClassifiers>
    <_>
      <internalNodes>
        0 -1 511528 -4.3394635431468487e-03</internalNodes>
      <leafValues>
        4.3055555224418640e-01 -6.5916955471038818e-01</leafValues></_>
    <_>
      <internalNodes>
        0 -1 173002 -3.2953854650259018e-02</internalNodes>
      <leafValues>
        3.6608400940895081e-01 -5.0098139047622681e-01</leafValues></_>
    <_>
      <internalNodes>
        0 -1 2030 -1.2144005857408047e-02</internalNodes>
      <leafValues>
        6.7590373754501343e-01 -2.6172590255737305e-01</leafValues></_>
    <_>
      <internalNodes>
        0 -1 400454 -3.4627639688551426e-03</internalNodes>
      <leafValues>
        4.9135395884513855e-01 -3.2795467972755432e-01</leafValues></_>
    <_>
      <internalNodes>
        0 -1 487722 -2.4486679467372596e-04</internalNodes>
      <leafValues>
        -9.1707408428192139e-01 1.8100580573081970e-01</leafValues></_>
    <_>
      <internalNodes>
        0 -1 488126 1.7224260955117643e-04</internalNodes>
      <leafValues>
        1.9207519292831421e-01 -8.4819388389587402e-01</leafValues></_>
    <_>
      <internalNodes>
        0 -1 219159 -2.0925379358232021e-03</internalNodes>
      <leafValues>
        5.3629332780838013e-01 -3.3063286542892456e-01</leafValues></_></weakClassifiers></stage8>
</opencv_storage>
